{"learner":{"attributes":{},"feature_names":["time","v1","v2","v3","v4","v5","v6","v7","v8","v9","v10","v11","v12","v13","v14","v15","v16","v17","v18","v19","v20","v21","v22","v23","v24","v25","v26","v27","v28","amount"],"feature_types":[],"gradient_booster":{"model":{"cats":{"enc":[],"feature_segments":[],"sorted_idx":[]},"gbtree_model_param":{"num_parallel_tree":"1","num_trees":"200"},"iteration_indptr":[0,1,2,3,4,5,6,7,8,9,10,11,12,13,14,15,16,17,18,19,20,21,22,23,24,25,26,27,28,29,30,31,32,33,34,35,36,37,38,39,40,41,42,43,44,45,46,47,48,49,50,51,52,53,54,55,56,57,58,59,60,61,62,63,64,65,66,67,68,69,70,71,72,73,74,75,76,77,78,79,80,81,82,83,84,85,86,87,88,89,90,91,92,93,94,95,96,97,98,99,100,101,102,103,104,105,106,107,108,109,110,111,112,113,114,115,116,117,118,119,120,121,122,123,124,125,126,127,128,129,130,131,132,133,134,135,136,137,138,139,140,141,142,143,144,145,146,147,148,149,150,151,152,153,154,155,156,157,158,159,160,161,162,163,164,165,166,167,168,169,170,171,172,173,174,175,176,177,178,179,180,181,182,183,184,185,186,187,188,189,190,191,192,193,194,195,196,197,198,199,200],"tree_info":[0,0,0,0,0,0,0,0,0,0,0,0,0,0,0,0,0,0,0,0,0,0,0,0,0,0,0,0,0,0,0,0,0,0,0,0,0,0,0,0,0,0,0,0,0,0,0,0,0,0,0,0,0,0,0,0,0,0,0,0,0,0,0,0,0,0,0,0,0,0,0,0,0,0,0,0,0,0,0,0,0,0,0,0,0,0,0,0,0,0,0,0,0,0,0,0,0,0,0,0,0,0,0,0,0,0,0,0,0,0,0,0,0,0,0,0,0,0,0,0,0,0,0,0,0,0,0,0,0,0,0,0,0,0,0,0,0,0,0,0,0,0,0,0,0,0,0,0,0,0,0,0,0,0,0,0,0,0,0,0,0,0,0,0,0,0,0,0,0,0,0,0,0,0,0,0,0,0,0,0,0,0,0,0,0,0,0,0,0,0,0,0,0,0,0,0,0,0,0,0],"trees":[{"base_weights":[9.6965E-9,1.8682E0,-1.5455672E0,1.9911662E0,6.9971955E-1,-1.7762958E0,-7.3382005E-2,-1.9333333E-1,1.9936615E0,-3.2757932E-1,1.7845603E0,-8.968215E-2,-1.827153E0,9.435909E-1,-1.3546E0,1.9949104E0,-1.8709677E-1,-1.5852228E0,1.3912634E0,-1.968254E-1,1.8859383E0,1.2839509E0,-1.9969593E-1,-1.8486621E0,2.7565983E-1,1.3680452E0,-4.0012693E-1,-1.999222E-1,8.918782E-2,-1.7142858E-1,1.9954274E0,1.5990882E0,-1.9984424E-1,1.7518803E0,-1.9805825E-1,-1.9333333E-1,1.9352449E0,-1.9819413E-1,1.7324524E0,-1.3502373E0,-1.920111E0,1.5931045E0,-1.9897173E-1,1.5301572E0,-1.987842E-1,-1.996385E-1,1.1415218E0,1.3126068E0,-1.9952969E-1,1.995643E-1,-1.4285715E-1,-1.884058E-1,1.9867435E-1,1.8719693E-1,-1.9349593E-1,1.957321E-1,-1.8545455E-1,1.9011505E-1,-1.944056E-1,-1.898534E-2,-1.9995172E-1,-1.9708231E-1,-1.3827765E-1,-1.9327731E-1,1.9312577E-1,1.6063313E-1,-1.9725086E-1,-1.9782609E-1,1.7344989E-1,1.7353988E-1,-1.9759037E-1],"categories":[],"categories_nodes":[],"categories_segments":[],"categories_sizes":[],"default_left":[0,0,0,0,0,0,0,0,0,0,0,0,0,0,0,0,0,0,0,0,0,0,0,0,0,0,0,0,0,0,0,0,0,0,0,0,0,0,0,0,0,0,0,0,0,0,0,0,0,0,0,0,0,0,0,0,0,0,0,0,0,0,0,0,0,0,0,0,0,0,0],"id":0,"left_children":[1,3,5,7,9,11,13,-1,15,17,19,21,23,25,27,29,-1,31,33,-1,35,37,-1,39,41,43,45,-1,47,-1,49,51,-1,53,-1,-1,55,-1,57,59,61,63,-1,65,-1,-1,67,69,-1,-1,-1,-1,-1,-1,-1,-1,-1,-1,-1,-1,-1,-1,-1,-1,-1,-1,-1,-1,-1,-1,-1],"loss_changes":[3.2715428E5,7.3692188E3,2.106164E4,4.58375E2,5.44567E3,4.597828E3,1.0949061E4,0E0,2.27625E2,5.428772E3,9.078696E2,4.116055E3,2.3540625E3,2.6724727E3,3.460954E3,9.234375E1,0E0,1.91129E3,1.2938474E3,0E0,4.3960645E2,1.3412628E3,0E0,1.8317344E3,1.5782089E3,1.9399956E3,2.7716357E3,0E0,2.9320984E3,0E0,3.7046875E1,2.2939731E2,0E0,4.2831323E2,0E0,0E0,1.9484668E2,0E0,5.0210156E2,4.8676797E3,1.2247969E3,4.0224017E2,0E0,9.0949805E2,0E0,0E0,1.0636565E3,1.01070874E3,0E0,0E0,0E0,0E0,0E0,0E0,0E0,0E0,0E0,0E0,0E0,0E0,0E0,0E0,0E0,0E0,0E0,0E0,0E0,0E0,0E0,0E0,0E0],"parents":[2147483647,0,0,1,1,2,2,3,3,4,4,5,5,6,6,8,8,9,9,10,10,11,11,12,12,13,13,14,14,15,15,17,17,18,18,20,20,21,21,23,23,24,24,25,25,26,26,28,28,30,30,31,31,33,33,36,36,38,38,39,39,40,40,41,41,43,43,46,46,47,47],"right_children":[2,4,6,8,10,12,14,-1,16,18,20,22,24,26,28,30,-1,32,34,-1,36,38,-1,40,42,44,46,-1,48,-1,50,52,-1,54,-1,-1,56,-1,58,60,62,64,-1,66,-1,-1,68,70,-1,-1,-1,-1,-1,-1,-1,-1,-1,-1,-1,-1,-1,-1,-1,-1,-1,-1,-1,-1,-1,-1,-1],"split_conditions":[-1.8863105E0,-1.4392083E0,1.1818637E0,-4.4827467E-1,1.3424487E0,-1.2848663E0,-5.588937E-2,-1.9333333E-1,1.0302951E0,7.375366E-2,5.0694376E-2,-1.0248197E0,2.4724984E0,-2.3356435E-1,7.388063E-1,-6.911135E-1,-1.8709677E-1,-2.090823E0,-9.0700024E-1,-1.968254E-1,6.478912E-1,-1.5020719E-1,-1.9969593E-1,-8.489499E-1,-1.113427E0,7.9548204E-1,1.0589005E0,-1.999222E-1,-1.1202724E0,-1.7142858E-1,1.0098195E0,9.013887E-1,-1.9984424E-1,5.288856E-1,-1.9805825E-1,-1.9333333E-1,1.1728655E0,-1.9819413E-1,-6.807914E-2,-6.069524E-1,8.739976E-1,8.391229E-1,-1.9897173E-1,1.0668277E0,-1.987842E-1,-1.996385E-1,4.5545447E-1,5.72916E-1,-1.9952969E-1,1.995643E-1,-1.4285715E-1,-1.884058E-1,1.9867435E-1,1.8719693E-1,-1.9349593E-1,1.957321E-1,-1.8545455E-1,1.9011505E-1,-1.944056E-1,-1.898534E-2,-1.9995172E-1,-1.9708231E-1,-1.3827765E-1,-1.9327731E-1,1.9312577E-1,1.6063313E-1,-1.9725086E-1,-1.9782609E-1,1.7344989E-1,1.7353988E-1,-1.9759037E-1],"split_indices":[14,12,4,4,4,20,8,0,10,29,28,16,7,12,11,11,0,10,10,0,18,4,0,14,26,3,22,0,15,0,1,4,0,16,0,0,2,0,12,0,7,19,0,25,0,0,11,3,0,0,0,0,0,0,0,0,0,0,0,0,0,0,0,0,0,0,0,0,0,0,0],"split_type":[0,0,0,0,0,0,0,0,0,0,0,0,0,0,0,0,0,0,0,0,0,0,0,0,0,0,0,0,0,0,0,0,0,0,0,0,0,0,0,0,0,0,0,0,0,0,0,0,0,0,0,0,0,0,0,0,0,0,0,0,0,0,0,0,0,0,0,0,0,0,0],"sum_hessian":[1.13301E5,5.1296406E4,6.2004594E4,4.6411535E4,4.884869E3,5.3603383E4,8.401214E3,2.9E1,4.6382535E4,2.5093333E3,2.3755356E3,1.5690952E3,5.2034285E4,4.6837383E3,3.717476E3,4.6368035E4,1.45E1,1.449119E3,1.0602144E3,6.2E1,2.3135356E3,9.123452E2,6.5675E2,5.1507547E4,5.267381E2,3.5593809E3,1.1243572E3,2.56975E3,1.1477262E3,6E0,4.6362035E4,1.6611905E2,1.283E3,9.582143E2,1.02E2,2.9E1,2.2845356E3,1.0975E2,8.025952E2,6.4603335E3,4.5047215E4,3.332381E2,1.935E2,3.3958809E3,1.635E2,5.5225E2,5.721072E2,7.234762E2,4.2425E2,4.6359535E4,2.5E0,1.625E1,1.4986905E2,9.284643E2,2.975E1,2.2717856E3,1.275E1,7.678452E2,3.475E1,2.3183333E3,4.142E3,4.115999E4,3.887226E3,2.875E1,3.044881E2,3.3241309E3,7.175E1,9.1E1,4.8110715E2,6.414762E2,8.2E1],"tree_param":{"num_deleted":"0","num_feature":"30","num_nodes":"71","size_leaf_vector":"1"}},{"base_weights":[-2.257435E-5,1.6987026E0,-1.4038942E0,-1.8190655E-1,1.7324908E0,-1.613595E0,-6.68134E-2,1.8128766E0,8.903175E-1,-8.179706E-2,-1.6597582E0,8.554354E-1,-1.2314177E0,1.8140169E0,-1.7103717E-1,4.2626664E-2,1.6219337E0,1.1663038E0,-1.8161868E-1,-1.6792823E0,2.5015506E-1,1.2396878E0,-3.6372024E-1,-1.81808E-1,8.071611E-2,-1.577592E-1,1.8144914E0,-1.2913291E0,1.4031409E0,-1.7921478E-1,1.7141583E0,-1.803615E-1,1.573867E0,-1.2235E0,-1.744805E0,1.4476635E0,-1.8101254E-1,1.3864521E0,-1.8085556E-1,-1.8157062E-1,1.0356941E0,1.1908312E0,-1.8147954E-1,1.8146908E-1,-1.33154E-1,1.5814227E-1,-1.8167643E-1,1.6242045E-1,-1.7925794E-1,-1.7628495E-1,1.7590648E-1,1.7312321E-1,-1.8802495E-1,-1.7089216E-2,-1.818327E-1,-1.7916663E-1,-1.2507123E-1,1.7609847E-1,-1.8179026E-1,1.458698E-1,-2.0578127E-1,-1.8005322E-1,1.5735933E-1,1.5879321E-1,-1.9540629E-1],"categories":[],"categories_nodes":[],"categories_segments":[],"categories_sizes":[],"default_left":[0,0,0,0,0,0,0,0,0,0,0,0,0,0,0,0,0,0,0,0,0,0,0,0,0,0,0,0,0,0,0,0,0,0,0,0,0,0,0,0,0,0,0,0,0,0,0,0,0,0,0,0,0,0,0,0,0,0,0,0,0,0,0,0,0],"id":1,"left_children":[1,3,5,-1,7,9,11,13,15,17,19,21,23,25,-1,27,29,31,-1,33,35,37,39,-1,41,-1,43,45,47,-1,49,-1,51,53,55,57,-1,59,-1,-1,61,63,-1,-1,-1,-1,-1,-1,-1,-1,-1,-1,-1,-1,-1,-1,-1,-1,-1,-1,-1,-1,-1,-1,-1],"loss_changes":[2.6769784E5,6.04025E3,1.7232453E4,0E0,3.4042656E3,3.7566562E3,8.951485E3,1.8760938E2,2.7198145E3,3.3688596E3,1.9235781E3,2.1793394E3,2.835378E3,7.6734375E1,0E0,3.6908257E3,7.4423926E2,1.09834E3,0E0,1.5224844E3,1.2923438E3,1.5847461E3,2.2683071E3,0E0,2.39874E3,0E0,3.1234375E1,1.5528776E3,7.141688E2,0E0,3.610581E2,0E0,4.361294E2,4.019374E3,1.0311719E3,3.4202386E2,0E0,8.427759E2,0E0,0E0,8.703254E2,9.008638E2,0E0,0E0,0E0,0E0,0E0,0E0,0E0,0E0,0E0,0E0,0E0,0E0,0E0,0E0,0E0,0E0,0E0,0E0,0E0,0E0,0E0,0E0,0E0],"parents":[2147483647,0,0,1,1,2,2,4,4,5,5,6,6,7,7,8,8,9,9,10,10,11,11,12,12,13,13,15,15,16,16,17,17,19,19,20,20,21,21,22,22,24,24,26,26,27,27,28,28,30,30,32,32,33,33,34,34,35,35,37,37,40,40,41,41],"right_children":[2,4,6,-1,8,10,12,14,16,18,20,22,24,26,-1,28,30,32,-1,34,36,38,40,-1,42,-1,44,46,48,-1,50,-1,52,54,56,58,-1,60,-1,-1,62,64,-1,-1,-1,-1,-1,-1,-1,-1,-1,-1,-1,-1,-1,-1,-1,-1,-1,-1,-1,-1,-1,-1,-1],"split_conditions":[-1.8863105E0,-4.06424E-1,1.1818637E0,-1.8190655E-1,-1.4392083E0,-1.2848663E0,-5.588937E-2,1.0302951E0,1.3424487E0,-1.0248197E0,2.4724984E0,-2.3356435E-1,7.388063E-1,-6.911135E-1,-1.7103717E-1,7.375366E-2,5.0694376E-2,-1.5020719E-1,-1.8161868E-1,-8.489499E-1,-1.113427E0,7.9548204E-1,1.0589005E0,-1.81808E-1,-1.1202724E0,-1.577592E-1,1.0098195E0,-2.090823E0,-9.0700024E-1,-1.7921478E-1,6.478912E-1,-1.803615E-1,5.4362487E-2,-6.069524E-1,8.739976E-1,2.474286E0,-1.8101254E-1,1.6606693E0,-1.8085556E-1,-1.8157062E-1,4.5545447E-1,-1.8783234E-1,-1.8147954E-1,1.8146908E-1,-1.33154E-1,1.5814227E-1,-1.8167643E-1,1.6242045E-1,-1.7925794E-1,-1.7628495E-1,1.7590648E-1,1.7312321E-1,-1.8802495E-1,-1.7089216E-2,-1.818327E-1,-1.7916663E-1,-1.2507123E-1,1.7609847E-1,-1.8179026E-1,1.458698E-1,-2.0578127E-1,-1.8005322E-1,1.5735933E-1,1.5879321E-1,-1.9540629E-1],"split_indices":[14,4,4,0,12,20,8,10,4,16,7,12,11,11,0,29,28,4,0,14,26,3,22,0,15,0,1,10,10,0,18,0,6,0,7,29,0,14,0,0,11,18,0,0,0,0,0,0,0,0,0,0,0,0,0,0,0,0,0,0,0,0,0,0,0],"split_type":[0,0,0,0,0,0,0,0,0,0,0,0,0,0,0,0,0,0,0,0,0,0,0,0,0,0,0,0,0,0,0,0,0,0,0,0,0,0,0,0,0,0,0,0,0,0,0,0,0,0,0,0,0,0,0,0,0,0,0,0,0,0,0,0,0],"sum_hessian":[1.1225007E5,5.079113E4,6.145894E4,4.827043E2,5.030842E4,5.312663E4,8.332311E3,4.592382E4,4.384605E3,1.5542974E3,5.1572332E4,4.6501377E3,3.6821733E3,4.5909445E4,1.4373843E1,2.0316646E3,2.3529402E3,9.0405164E2,6.502457E2,5.1050586E4,5.217471E2,3.5357317E3,1.1144059E3,2.5442424E3,1.1379308E3,5.956134E0,4.590349E4,1.0258706E3,1.00579395E3,6.1403378E1,2.2915369E3,1.0867924E2,7.953724E2,6.4189985E3,4.4631586E4,3.3014966E2,1.9159741E2,3.3738362E3,1.618954E2,5.4678375E2,5.676222E2,7.178755E2,4.200553E2,4.5901E4,2.487288E0,1.5831161E2,8.67559E2,9.411797E2,6.461427E1,2.873069E1,2.2628062E3,7.6119226E2,3.418015E1,2.3181245E3,4.1008745E3,4.0762883E4,3.8687034E3,3.0166644E2,2.8483229E1,3.3050862E3,6.87501E1,9.0115456E1,4.775067E2,6.378324E2,8.0043045E1],"tree_param":{"num_deleted":"0","num_feature":"30","num_nodes":"65","size_leaf_vector":"1"}},{"base_weights":[-2.4016015E-5,1.5710168E0,-1.2947117E0,1.6748483E0,5.867438E-1,-1.4885257E0,-6.1884448E-2,-1.628953E-1,1.6769526E0,-2.7516955E-1,1.4978251E0,-7.587659E-2,-1.53105E0,7.8454703E-1,-1.1374778E0,1.6780127E0,-1.5860516E-1,-1.3327395E0,1.162464E0,-1.658862E-1,1.5830389E0,1.0754826E0,-1.6803104E-1,-1.5490372E0,2.3060714E-1,1.1353353E0,-3.3589154E-1,-1.6820005E-1,7.3845305E-2,-1.4681306E-1,1.6784564E0,1.337021E0,-1.6814137E-1,1.4634151E0,-1.6681E-1,-1.6327512E-1,1.6245881E0,1.4475467E0,-1.6969045E-1,-1.1211823E0,-1.6110135E0,1.3357539E0,-1.6749E-1,1.2692795E0,-1.673499E-1,-1.6798814E-1,9.523716E-1,1.0918854E0,-1.6790687E-1,1.678645E-1,-1.2494468E-1,-1.7554054E-1,1.6882737E-1,1.5746905E-1,-1.864907E-1,1.6455758E-1,-1.8457307E-1,-1.789946E-1,1.5941505E-1,-1.5384816E-2,-1.6822211E-1,-1.6562174E-1,-1.14055015E-1,1.6259347E-1,-1.6765323E-1,1.3382448E-1,-1.859021E-1,-1.6663404E-1,1.4461267E-1,1.4592193E-1,-1.848176E-1],"categories":[],"categories_nodes":[],"categories_segments":[],"categories_sizes":[],"default_left":[0,0,0,0,0,0,0,0,0,0,0,0,0,0,0,0,0,0,0,0,0,0,0,0,0,0,0,0,0,0,0,0,0,0,0,0,0,0,0,0,0,0,0,0,0,0,0,0,0,0,0,0,0,0,0,0,0,0,0,0,0,0,0,0,0,0,0,0,0,0,0],"id":2,"left_children":[1,3,5,7,9,11,13,-1,15,17,19,21,23,25,27,29,-1,31,33,-1,35,37,-1,39,41,43,45,-1,47,-1,49,51,-1,53,-1,-1,55,57,-1,59,61,63,-1,65,-1,-1,67,69,-1,-1,-1,-1,-1,-1,-1,-1,-1,-1,-1,-1,-1,-1,-1,-1,-1,-1,-1,-1,-1,-1,-1],"loss_changes":[2.228185E5,5.0569688E3,1.4349453E4,3.1395312E2,3.710207E3,3.117414E3,7.429661E3,0E0,1.5742969E2,3.6937666E3,6.20438E2,2.8052668E3,1.5967578E3,1.7953442E3,2.3705972E3,6.4890625E1,0E0,1.3051414E3,8.7969946E2,0E0,3.015327E2,9.1448444E2,0E0,1.3206172E3,1.0763785E3,1.310731E3,1.8882701E3,0E0,1.9924487E3,0E0,2.6789062E1,1.7918857E2,0E0,3.4788123E2,0E0,0E0,1.639165E2,3.7310742E2,0E0,3.4260112E3,9.244531E2,2.8540448E2,0E0,7.1886426E2,0E0,0E0,7.2262286E2,7.654486E2,0E0,0E0,0E0,0E0,0E0,0E0,0E0,0E0,0E0,0E0,0E0,0E0,0E0,0E0,0E0,0E0,0E0,0E0,0E0,0E0,0E0,0E0,0E0],"parents":[2147483647,0,0,1,1,2,2,3,3,4,4,5,5,6,6,8,8,9,9,10,10,11,11,12,12,13,13,14,14,15,15,17,17,18,18,20,20,21,21,23,23,24,24,25,25,26,26,28,28,30,30,31,31,33,33,36,36,37,37,39,39,40,40,41,41,43,43,46,46,47,47],"right_children":[2,4,6,8,10,12,14,-1,16,18,20,22,24,26,28,30,-1,32,34,-1,36,38,-1,40,42,44,46,-1,48,-1,50,52,-1,54,-1,-1,56,58,-1,60,62,64,-1,66,-1,-1,68,70,-1,-1,-1,-1,-1,-1,-1,-1,-1,-1,-1,-1,-1,-1,-1,-1,-1,-1,-1,-1,-1,-1,-1],"split_conditions":[-1.8863105E0,-1.4392083E0,1.1818637E0,-4.4827467E-1,1.3424487E0,-1.2848663E0,-5.588937E-2,-1.628953E-1,1.0302951E0,7.375366E-2,5.0694376E-2,-1.0248197E0,2.4724984E0,-2.3356435E-1,7.388063E-1,-6.911135E-1,-1.5860516E-1,-2.090823E0,-9.0700024E-1,-1.658862E-1,6.478912E-1,-6.807914E-2,-1.6803104E-1,-8.489499E-1,-1.113427E0,7.9548204E-1,1.0589005E0,-1.6820005E-1,-1.1202724E0,-1.4681306E-1,1.0098195E0,9.013887E-1,-1.6814137E-1,5.288856E-1,-1.6681E-1,-1.6327512E-1,1.1728655E0,9.381187E-2,-1.6969045E-1,-6.069524E-1,8.739976E-1,2.474286E0,-1.6749E-1,1.0668277E0,-1.673499E-1,-1.6798814E-1,4.5545447E-1,-2.1708818E-1,-1.6790687E-1,1.678645E-1,-1.2494468E-1,-1.7554054E-1,1.6882737E-1,1.5746905E-1,-1.864907E-1,1.6455758E-1,-1.8457307E-1,-1.789946E-1,1.5941505E-1,-1.5384816E-2,-1.6822211E-1,-1.6562174E-1,-1.14055015E-1,1.6259347E-1,-1.6765323E-1,1.3382448E-1,-1.859021E-1,-1.6663404E-1,1.4461267E-1,1.4592193E-1,-1.848176E-1],"split_indices":[14,12,4,4,4,20,8,0,10,29,28,16,7,12,11,11,0,10,10,0,18,12,0,14,26,3,22,0,15,0,1,4,0,16,0,0,2,28,0,0,7,29,0,25,0,0,11,20,0,0,0,0,0,0,0,0,0,0,0,0,0,0,0,0,0,0,0,0,0,0,0],"split_type":[0,0,0,0,0,0,0,0,0,0,0,0,0,0,0,0,0,0,0,0,0,0,0,0,0,0,0,0,0,0,0,0,0,0,0,0,0,0,0,0,0,0,0,0,0,0,0,0,0,0,0,0,0,0,0,0,0,0,0,0,0,0,0,0,0,0,0,0,0,0,0],"sum_hessian":[1.0954456E5,4.9490285E4,6.0054273E4,4.4767074E4,4.7232095E3,5.1895523E4,8.158752E3,2.8002651E1,4.4739074E4,2.4274543E3,2.295755E3,1.5166154E3,5.0378906E4,4.5659087E3,3.592843E3,4.4725027E4,1.4044819E1,1.3986414E3,1.0288131E3,5.9858837E1,2.235896E3,8.831715E2,6.3344385E2,4.9869836E4,5.0907126E2,3.4772375E3,1.0886711E3,2.478363E3,1.1144802E3,5.8403444E0,4.4719188E4,1.6123647E2,1.2374049E3,9.303766E2,9.8436485E1,2.8031647E1,2.2078643E3,7.790924E2,1.04079094E2,6.312238E3,4.3557598E4,3.223913E2,1.8667995E2,3.31949E3,1.5774751E2,5.3266284E2,5.560083E2,7.052621E2,4.092181E2,4.4716734E4,2.452984E0,1.6038246E1,1.4519821E2,9.007876E2,2.9589012E1,2.1951147E3,1.274971E1,3.3265743E1,7.4582666E2,2.3175793E3,3.9946584E3,3.9736996E4,3.8206003E3,2.9448328E2,2.7908031E1,3.2484482E3,7.10418E1,8.782724E1,4.681811E2,6.273803E2,7.788177E1],"tree_param":{"num_deleted":"0","num_feature":"30","num_nodes":"71","size_leaf_vector":"1"}},{"base_weights":[-1.684279E-5,1.4717169E0,-1.2076681E0,1.5693244E0,5.483643E-1,-1.3889796E0,-5.8090895E-2,-1.5272659E-1,1.5713015E0,-2.574931E-1,1.4007251E0,-7.128064E-2,-1.4285932E0,7.261354E-1,-1.0636454E0,1.5723003E0,-1.4869171E-1,-1.2485491E0,1.08299E0,-1.554665E-1,1.4804624E0,1.0023987E0,-1.5747443E-1,-1.5126855E0,-1.091983E0,1.1343249E0,-1.00772195E-1,-1.5763292E-1,6.81373E-2,-1.3782887E-1,1.5727212E0,1.2484641E0,-1.5757793E-1,1.3629249E0,-1.5633026E-1,-1.5302996E-1,1.5194012E0,-1.590056E-1,1.358128E0,-1.5398849E0,-4.9632898E-1,-1.5787227E-1,-1.3711698E0,1.2444582E0,-1.5652074E-1,-1.6707469E0,6.5945464E-1,1.0103699E0,-1.57358E-1,1.5729022E-1,-1.17890835E-1,-1.6238005E-1,1.5798877E-1,1.4642999E-1,-2.0216253E-1,-2.000242E-1,1.5383913E-1,1.4968103E-1,-1.6485727E-1,-1.5658437E-1,-5.4292332E-2,-1.6176482E-1,1.3459392E-1,6.771618E-2,-1.6763578E-1,-1.4449853E-1,9.994382E-2,1.3200608E-1,-1.9375432E-1,-2.1371253E-1,-1.573478E-1,-1.828479E-1,1.1142974E-1,1.3685295E-1,-1.7332028E-1],"categories":[],"categories_nodes":[],"categories_segments":[],"categories_sizes":[],"default_left":[0,0,0,0,0,0,0,0,0,0,0,0,0,0,0,0,0,0,0,0,0,0,0,0,0,0,0,0,0,0,0,0,0,0,0,0,0,0,0,0,0,0,0,0,0,0,0,0,0,0,0,0,0,0,0,0,0,0,0,0,0,0,0,0,0,0,0,0,0,0,0,0,0,0,0],"id":3,"left_children":[1,3,5,7,9,11,13,-1,15,17,19,21,23,25,27,29,-1,31,33,-1,35,37,-1,39,41,43,45,-1,47,-1,49,51,-1,53,-1,-1,55,-1,57,59,61,63,65,67,-1,69,71,73,-1,-1,-1,-1,-1,-1,-1,-1,-1,-1,-1,-1,-1,-1,-1,-1,-1,-1,-1,-1,-1,-1,-1,-1,-1,-1,-1],"loss_changes":[1.8786303E5,4.2928047E3,1.2101102E4,2.6616406E2,3.129893E3,2.6176094E3,6.238873E3,0E0,1.33875E2,3.1137546E3,5.241221E2,2.3658923E3,1.3764453E3,1.5004485E3,2.0115623E3,5.5625E1,0E0,1.1029458E3,7.402389E2,0E0,2.5516455E2,7.9071643E2,0E0,1.0760156E3,2.5386025E3,8.8674585E2,1.7555367E3,0E0,1.6748513E3,0E0,2.328125E1,1.517119E2,0E0,3.1230542E2,0E0,0E0,1.4541797E2,0E0,3.1621643E2,9.8091406E2,2.1024502E3,2.8429783E3,1.3129453E3,6.90563E2,0E0,1.8405273E1,1.1235778E3,6.7829785E2,0E0,0E0,0E0,0E0,0E0,0E0,0E0,0E0,0E0,0E0,0E0,0E0,0E0,0E0,0E0,0E0,0E0,0E0,0E0,0E0,0E0,0E0,0E0,0E0,0E0,0E0,0E0],"parents":[2147483647,0,0,1,1,2,2,3,3,4,4,5,5,6,6,8,8,9,9,10,10,11,11,12,12,13,13,14,14,15,15,17,17,18,18,20,20,21,21,23,23,24,24,25,25,26,26,28,28,30,30,31,31,33,33,36,36,38,38,39,39,40,40,41,41,42,42,43,43,45,45,46,46,47,47],"right_children":[2,4,6,8,10,12,14,-1,16,18,20,22,24,26,28,30,-1,32,34,-1,36,38,-1,40,42,44,46,-1,48,-1,50,52,-1,54,-1,-1,56,-1,58,60,62,64,66,68,-1,70,72,74,-1,-1,-1,-1,-1,-1,-1,-1,-1,-1,-1,-1,-1,-1,-1,-1,-1,-1,-1,-1,-1,-1,-1,-1,-1,-1,-1],"split_conditions":[-1.8863105E0,-1.4392083E0,1.1818637E0,-4.4827467E-1,1.3424487E0,-1.2848663E0,-5.588937E-2,-1.5272659E-1,1.0302951E0,7.375366E-2,5.0694376E-2,-1.0248197E0,5.266215E-1,-4.927846E-1,7.388063E-1,-6.911135E-1,-1.4869171E-1,-2.090823E0,-9.0700024E-1,-1.554665E-1,6.478912E-1,-1.5020719E-1,-1.5747443E-1,1.2606858E0,-5.247661E-1,7.9548204E-1,5.070424E-1,-1.5763292E-1,-1.1202724E0,-1.3782887E-1,1.0098195E0,9.013887E-1,-1.5757793E-1,1.6084255E-1,-1.5633026E-1,-1.5302996E-1,-1.2065758E0,-1.590056E-1,5.4362487E-2,1.7161472E0,2.3682594E-1,-2.0818284E-1,2.1977508E0,1.6606693E0,-1.5652074E-1,-2.3356435E-1,2.2241014E-1,5.72916E-1,-1.57358E-1,1.5729022E-1,-1.17890835E-1,-1.6238005E-1,1.5798877E-1,1.4642999E-1,-2.0216253E-1,-2.000242E-1,1.5383913E-1,1.4968103E-1,-1.6485727E-1,-1.5658437E-1,-5.4292332E-2,-1.6176482E-1,1.3459392E-1,6.771618E-2,-1.6763578E-1,-1.4449853E-1,9.994382E-2,1.3200608E-1,-1.9375432E-1,-2.1371253E-1,-1.573478E-1,-1.828479E-1,1.1142974E-1,1.3685295E-1,-1.7332028E-1],"split_indices":[14,12,4,4,4,20,8,0,10,29,28,16,4,12,11,11,0,10,10,0,18,4,0,23,14,3,22,0,15,0,1,4,0,11,0,0,22,0,6,29,4,13,15,14,0,12,24,3,0,0,0,0,0,0,0,0,0,0,0,0,0,0,0,0,0,0,0,0,0,0,0,0,0,0,0],"split_type":[0,0,0,0,0,0,0,0,0,0,0,0,0,0,0,0,0,0,0,0,0,0,0,0,0,0,0,0,0,0,0,0,0,0,0,0,0,0,0,0,0,0,0,0,0,0,0,0,0,0,0,0,0,0,0,0,0,0,0,0,0,0,0,0,0,0,0,0,0,0,0,0,0,0,0],"sum_hessian":[1.05696914E5,4.763957E4,5.8057344E4,4.308442E4,4.555147E3,5.014782E4,7.909526E3,2.6997805E1,4.3057426E4,2.341805E3,2.213342E3,1.4636626E3,4.8684156E4,4.4439736E3,3.4655522E3,4.304385E4,1.3573556E1,1.3464248E3,9.953802E2,5.7661777E1,2.1556802E3,8.5407153E2,6.0959106E2,3.89501E4,9.734056E3,2.9750278E3,1.468946E3,2.384851E3,1.080701E3,5.672569E0,4.303818E4,1.5567699E2,1.1907478E3,9.005966E2,9.478356E1,2.7034843E1,2.1286453E3,1.0263398E2,7.5143756E2,3.79344E4,1.01570184E3,2.2402239E3,7.493832E3,2.8589304E3,1.160973E2,4.78852E2,9.9009406E2,6.8686975E2,3.9383136E2,4.3035777E4,2.4021535E0,1.5701479E1,1.3997551E2,8.749571E2,2.5639565E1,1.0863451E1,2.117782E3,7.1878613E2,3.2651443E1,3.697118E4,9.6321954E2,6.314711E2,3.842307E2,1.4457449E3,7.9447906E2,7.2679155E3,2.2591612E2,2.7931519E3,6.577846E1,7.901681E1,3.998352E2,1.5256458E2,8.375295E2,6.079997E2,7.887008E1],"tree_param":{"num_deleted":"0","num_feature":"30","num_nodes":"75","size_leaf_vector":"1"}},{"base_weights":[-1.50603555E-5,1.3924111E0,-1.1350956E0,1.4852035E0,5.1715374E-1,-1.3061743E0,-5.4995548E-2,-1.4451258E-1,1.4870803E0,-2.4318543E-1,1.3221208E0,-4.577753E-1,-1.3615652E0,7.3292965E-1,-9.3836176E-1,1.4880315E0,-1.405954E-1,-1.181506E0,1.0165043E0,-1.4711496E-1,1.3974137E0,-1.5151317E-1,3.1250286E-1,-1.3801178E0,4.0533164E-1,1.1316717E0,-4.3763056E-2,6.2384194E-1,-1.2443608E0,-1.3030005E-1,1.4884351E0,1.177881E0,-1.4916529E-1,1.2785587E0,-1.4795224E-1,1.4312681E0,-1.828323E0,-1.5081072E-1,1.0152601E0,-8.9712626E-1,-1.4268684E0,-1.5224887E-1,1.346235E0,1.2251151E0,-1.4786777E-1,-1.6066254E0,6.472246E-1,-1.5146999E-1,1.2503572E0,-2.6308814E-1,-1.5243325E0,1.4885813E-1,-1.7260365E-1,-1.5194428E-1,1.4936034E-1,1.3765405E-1,-1.9429712E-1,1.4529233E-1,-1.6173685E-1,-1.3901572E-1,-2.2429095E-1,1.3811935E-1,-1.5264344E-1,4.174247E-3,-1.4987524E-1,-1.4735208E-1,-9.60504E-2,1.6036001E-1,-1.4754973E-1,1.2937582E-1,-1.7626037E-1,-2.0139752E-1,-1.4888106E-1,-1.7399395E-1,1.0600724E-1,1.4665376E-1,-1.4684123E-1,-1.5096776E-1,9.736756E-2,-1.8624523E-1,-1.5059501E-1],"categories":[],"categories_nodes":[],"categories_segments":[],"categories_sizes":[],"default_left":[0,0,0,0,0,0,0,0,0,0,0,0,0,0,0,0,0,0,0,0,0,0,0,0,0,0,0,0,0,0,0,0,0,0,0,0,0,0,0,0,0,0,0,0,0,0,0,0,0,0,0,0,0,0,0,0,0,0,0,0,0,0,0,0,0,0,0,0,0,0,0,0,0,0,0,0,0,0,0,0,0],"id":4,"left_children":[1,3,5,7,9,11,13,-1,15,17,19,21,23,25,27,29,-1,31,33,-1,35,-1,37,39,41,43,45,47,49,-1,51,53,-1,55,-1,57,59,-1,61,63,65,-1,67,69,-1,71,73,-1,75,77,79,-1,-1,-1,-1,-1,-1,-1,-1,-1,-1,-1,-1,-1,-1,-1,-1,-1,-1,-1,-1,-1,-1,-1,-1,-1,-1,-1,-1,-1,-1],"loss_changes":[1.5988881E5,3.6890234E3,1.029807E4,2.2804688E2,2.6666084E3,2.260289E3,5.3053867E3,0E0,1.1505469E2,2.6501812E3,4.4712622E2,2.4032104E3,1.4809766E3,1.2477927E3,1.7185996E3,4.8179688E1,0E0,9.419579E2,6.280296E2,0E0,2.2770972E2,0E0,2.186285E3,1.0078906E3,8.546625E2,6.5117554E2,1.4780193E3,7.914035E2,8.2523096E2,0E0,2.184375E1,1.2986844E2,0E0,2.7629468E2,0E0,1.370503E2,8.5063934E-1,0E0,1.1485515E3,2.2294646E3,8.851172E2,0E0,2.3214612E2,5.295044E2,0E0,1.713855E1,9.372021E2,0E0,2.703371E2,1.0318412E3,1.1727051E1,0E0,0E0,0E0,0E0,0E0,0E0,0E0,0E0,0E0,0E0,0E0,0E0,0E0,0E0,0E0,0E0,0E0,0E0,0E0,0E0,0E0,0E0,0E0,0E0,0E0,0E0,0E0,0E0,0E0,0E0],"parents":[2147483647,0,0,1,1,2,2,3,3,4,4,5,5,6,6,8,8,9,9,10,10,11,11,12,12,13,13,14,14,15,15,17,17,18,18,20,20,22,22,23,23,24,24,25,25,26,26,27,27,28,28,30,30,31,31,33,33,35,35,36,36,38,38,39,39,40,40,42,42,43,43,45,45,46,46,48,48,49,49,50,50],"right_children":[2,4,6,8,10,12,14,-1,16,18,20,22,24,26,28,30,-1,32,34,-1,36,-1,38,40,42,44,46,48,50,-1,52,54,-1,56,-1,58,60,-1,62,64,66,-1,68,70,-1,72,74,-1,76,78,80,-1,-1,-1,-1,-1,-1,-1,-1,-1,-1,-1,-1,-1,-1,-1,-1,-1,-1,-1,-1,-1,-1,-1,-1,-1,-1,-1,-1,-1,-1],"split_conditions":[-1.8863105E0,-1.4392083E0,1.1818637E0,-4.4827467E-1,1.3424487E0,-7.590549E-1,-9.1229506E-2,-1.4451258E-1,1.0302951E0,7.375366E-2,5.0694376E-2,-4.839865E-2,2.4724984E0,-5.7910275E-1,-5.501967E-1,-6.911135E-1,-1.405954E-1,-2.090823E0,-9.0700024E-1,-1.4711496E-1,3.4230524E-1,-1.5151317E-1,-1.5020719E-1,-1.0456247E0,8.391229E-1,7.9548204E-1,5.070424E-1,-3.0390874E-1,-8.185714E-1,-1.3030005E-1,1.7831217E0,9.013887E-1,-1.4916529E-1,-2.4638672E-1,-1.4795224E-1,9.4936824E-1,6.1074036E-1,-1.5081072E-1,5.4362487E-2,-6.069524E-1,8.739976E-1,-1.5224887E-1,-1.113427E0,1.6606693E0,-1.4786777E-1,-2.3356435E-1,2.2241014E-1,-1.5146999E-1,-1.6400711E-1,-9.078991E-1,-5.588937E-2,1.4885813E-1,-1.7260365E-1,-1.5194428E-1,1.4936034E-1,1.3765405E-1,-1.9429712E-1,1.4529233E-1,-1.6173685E-1,-1.3901572E-1,-2.2429095E-1,1.3811935E-1,-1.5264344E-1,4.174247E-3,-1.4987524E-1,-1.4735208E-1,-9.60504E-2,1.6036001E-1,-1.4754973E-1,1.2937582E-1,-1.7626037E-1,-2.0139752E-1,-1.4888106E-1,-1.7399395E-1,1.0600724E-1,1.4665376E-1,-1.4684123E-1,-1.5096776E-1,9.736756E-2,-1.8624523E-1,-1.5059501E-1],"split_indices":[14,12,4,4,4,20,8,0,10,29,28,28,7,12,10,11,0,10,10,0,23,0,4,14,19,3,22,26,18,0,7,4,0,26,0,7,18,0,6,0,7,0,26,14,0,12,24,0,6,18,8,0,0,0,0,0,0,0,0,0,0,0,0,0,0,0,0,0,0,0,0,0,0,0,0,0,0,0,0,0,0],"split_type":[0,0,0,0,0,0,0,0,0,0,0,0,0,0,0,0,0,0,0,0,0,0,0,0,0,0,0,0,0,0,0,0,0,0,0,0,0,0,0,0,0,0,0,0,0,0,0,0,0,0,0,0,0,0,0,0,0,0,0,0,0,0,0,0,0,0,0,0,0,0,0,0,0,0,0,0,0,0,0,0,0],"sum_hessian":[1.01160414E5,4.5430133E4,5.5730285E4,4.1074797E4,4.355336E3,4.8109883E4,7.6204033E3,2.5797392E1,4.1049E4,2.2401135E3,2.1152222E3,2.9491035E3,4.5160777E4,4.0278777E3,3.5925256E3,4.1035992E4,1.3006291E1,1.2838549E3,9.5625867E2,5.5032948E1,2.0601892E3,1.2425269E3,1.7065765E3,4.4691734E4,4.6904587E2,2.6612012E3,1.3666765E3,5.882615E2,3.0042642E3,5.468506E0,4.1030523E4,1.4883342E2,1.1350215E3,8.658428E2,9.041587E1,2.0393425E3,2.0846771E1,4.7496204E2,1.2316145E3,3.945907E3,4.0745824E4,1.536381E2,3.1540775E2,2.569742E3,9.145911E1,4.1859085E2,9.480857E2,1.3296889E2,4.552926E2,6.673186E2,2.3369456E3,4.1029195E4,1.3274999E0,1.5196023E1,1.3363739E2,8.4084155E2,2.5001225E1,2.0254785E3,1.3863942E1,1.2251546E1,8.595226E0,1.0770114E3,1.546031E2,1.5414011E3,2.4045059E3,3.7038543E4,3.7072812E3,2.8944016E2,2.5967604E1,2.5125823E3,5.715983E1,9.029561E1,3.2829523E2,1.3931656E2,8.0876917E2,4.2218365E2,3.310896E1,3.3222925E2,3.3508936E2,1.1532755E2,2.221618E3],"tree_param":{"num_deleted":"0","num_feature":"30","num_nodes":"81","size_leaf_vector":"1"}},{"base_weights":[-9.403822E-6,1.3277744E0,-1.0748543E0,1.416787E0,4.9118084E-1,-1.2611811E0,-1.7568102E-1,-1.3774346E-1,1.4185833E0,-2.3142979E-1,1.2566189E0,-1.2859031E0,4.2385188E-1,6.0982466E-1,-9.537174E-1,1.4194967E0,-1.3384967E-1,-1.1270525E0,9.604067E-1,-1.402862E-1,1.3281904E0,-5.750966E-1,-1.3283759E0,-1.4461634E-1,1.2360449E0,8.549282E-1,-1.4327796E-1,-1.2523774E0,2.200989E-1,-1.2387629E-1,1.4198874E0,1.1204121E0,-1.4233296E-1,1.2072241E0,-1.4112036E-1,1.3618457E0,-1.6828567E-1,-1.4366178E-1,1.36231E-1,7.370154E-2,-1.3415703E0,1.4687301E0,-1.4536743E-1,1.2756088E0,-6.740851E-2,-1.4617572E0,-8.632351E-2,-1.4836752E-1,8.887311E-1,1.422439E-1,1.17065385E-1,-1.4346193E-1,1.4235026E-1,1.2990549E-1,-2.0492971E-1,-1.6814664E-1,1.382586E-1,-1.451572E-1,8.666174E-2,2.6303658E-1,-1.4378357E-1,-1.0330389E-1,-1.4051656E-1,1.5049344E-1,-1.2368535E-1,-1.6581349E-1,1.3590494E-1,5.4018468E-2,-1.8172766E-1,-1.5314126E-1,-1.4436446E-1,1.3583674E-1,-1.5621524E-1,1.23514764E-1,-1.5303527E-1],"categories":[],"categories_nodes":[],"categories_segments":[],"categories_sizes":[],"default_left":[0,0,0,0,0,0,0,0,0,0,0,0,0,0,0,0,0,0,0,0,0,0,0,0,0,0,0,0,0,0,0,0,0,0,0,0,0,0,0,0,0,0,0,0,0,0,0,0,0,0,0,0,0,0,0,0,0,0,0,0,0,0,0,0,0,0,0,0,0,0,0,0,0,0,0],"id":5,"left_children":[1,3,5,7,9,11,13,-1,15,17,19,21,23,25,27,29,-1,31,33,-1,35,37,39,-1,41,43,-1,45,47,-1,49,51,-1,53,-1,55,-1,-1,57,59,61,63,-1,65,67,69,71,-1,73,-1,-1,-1,-1,-1,-1,-1,-1,-1,-1,-1,-1,-1,-1,-1,-1,-1,-1,-1,-1,-1,-1,-1,-1,-1,-1],"loss_changes":[1.3718575E5,3.2015938E3,8.899891E3,1.9703125E2,2.2885015E3,1.8336172E3,5.5740664E3,0E0,9.971875E1,2.2735022E3,3.8428247E2,1.3085E3,9.692948E2,2.2734956E3,1.6065938E3,4.2085938E1,0E0,8.112505E2,5.36674E2,0E0,2.0060571E2,1.4997776E3,7.571328E2,0E0,2.8042993E2,1.572689E3,0E0,8.9169385E2,1.0610106E3,0E0,2.3023438E1,1.1214935E2,0E0,2.5036902E2,0E0,1.245166E2,0E0,0E0,1.5567175E3,1.4817661E3,7.939922E2,4.1998352E1,0E0,6.836377E2,1.3517815E3,1.6958008E0,1.189965E3,0E0,5.622399E2,0E0,0E0,0E0,0E0,0E0,0E0,0E0,0E0,0E0,0E0,0E0,0E0,0E0,0E0,0E0,0E0,0E0,0E0,0E0,0E0,0E0,0E0,0E0,0E0,0E0,0E0],"parents":[2147483647,0,0,1,1,2,2,3,3,4,4,5,5,6,6,8,8,9,9,10,10,11,11,12,12,13,13,14,14,15,15,17,17,18,18,20,20,21,21,22,22,24,24,25,25,27,27,28,28,30,30,31,31,33,33,35,35,38,38,39,39,40,40,41,41,43,43,44,44,45,45,46,46,48,48],"right_children":[2,4,6,8,10,12,14,-1,16,18,20,22,24,26,28,30,-1,32,34,-1,36,38,40,-1,42,44,-1,46,48,-1,50,52,-1,54,-1,56,-1,-1,58,60,62,64,-1,66,68,70,72,-1,74,-1,-1,-1,-1,-1,-1,-1,-1,-1,-1,-1,-1,-1,-1,-1,-1,-1,-1,-1,-1,-1,-1,-1,-1,-1,-1],"split_conditions":[-1.8863105E0,-1.4392083E0,9.8694974E-1,-4.4827467E-1,1.3424487E0,2.4724984E0,-4.927846E-1,-1.3774346E-1,1.0302951E0,7.375366E-2,5.0694376E-2,-7.590549E-1,8.391229E-1,8.4498763E-1,9.989968E-1,-6.911135E-1,-1.3384967E-1,-2.090823E0,-9.0700024E-1,-1.402862E-1,-1.6471942E-1,-1.5020719E-1,-2.179455E0,-1.4461634E-1,5.574152E-1,2.9241902E-1,-1.4327796E-1,8.739976E-1,1.7307576E0,-1.2387629E-1,-2.7826564E0,9.013887E-1,-1.4233296E-1,-1.7509802E-1,-1.4112036E-1,-1.239694E0,-1.6828567E-1,-1.4366178E-1,-4.839865E-2,-1.7261149E0,-6.8220496E-1,6.0746353E-2,-1.4536743E-1,-1.508409E0,1.6642168E-2,-8.8136025E-2,-3.4370407E-1,-1.4836752E-1,6.109618E-1,1.422439E-1,1.17065385E-1,-1.4346193E-1,1.4235026E-1,1.2990549E-1,-2.0492971E-1,-1.6814664E-1,1.382586E-1,-1.451572E-1,8.666174E-2,2.6303658E-1,-1.4378357E-1,-1.0330389E-1,-1.4051656E-1,1.5049344E-1,-1.2368535E-1,-1.6581349E-1,1.3590494E-1,5.4018468E-2,-1.8172766E-1,-1.5314126E-1,-1.4436446E-1,1.3583674E-1,-1.5621524E-1,1.23514764E-1,-1.5303527E-1],"split_indices":[14,12,4,4,4,7,12,0,10,29,28,20,19,3,11,11,0,10,10,0,19,4,26,0,6,14,0,7,4,0,14,4,0,8,0,22,0,0,28,3,14,21,0,11,21,8,29,0,10,0,0,0,0,0,0,0,0,0,0,0,0,0,0,0,0,0,0,0,0,0,0,0,0,0,0],"split_type":[0,0,0,0,0,0,0,0,0,0,0,0,0,0,0,0,0,0,0,0,0,0,0,0,0,0,0,0,0,0,0,0,0,0,0,0,0,0,0,0,0,0,0,0,0,0,0,0,0,0,0,0,0,0,0,0,0,0,0,0,0,0,0,0,0,0,0,0,0,0,0,0,0,0,0],"sum_hessian":[9.612289E4,4.3001625E4,5.312126E4,3.8865664E4,4.1359624E3,4.4002625E4,9.118638E3,2.4475729E1,3.8841188E4,2.1278584E3,2.0081039E3,4.336661E4,6.360153E2,4.537646E3,4.580992E3,3.882881E4,1.2378292E1,1.2149336E3,9.12925E2,5.213807E1,1.9559658E3,2.4460034E3,4.0920605E4,1.9235391E2,4.436614E2,4.052005E3,4.8564127E2,3.6517834E3,9.292086E2,5.240453E0,3.882357E4,1.4118282E2,1.0737507E3,8.273158E2,8.560915E1,1.9348868E3,2.1079016E1,1.1057544E3,1.340249E3,3.8145227E2,4.0539152E4,4.0875436E2,3.490704E1,2.7825103E3,1.2694944E3,3.0956643E3,5.561192E2,2.6154193E2,6.676667E2,3.8425445E4,3.9812332E2,1.4575874E1,1.2660694E2,8.0521075E2,2.2105068E1,1.2555067E1,1.9223318E3,4.2195792E2,9.182911E2,1.4145331E2,2.3999898E2,6.9309624E3,3.360819E4,4.0379483E2,4.959538E0,7.6428696E1,2.7060815E3,9.4281824E2,3.2667618E2,6.21608E2,2.4740564E3,2.8106442E2,2.7505478E2,5.8446045E2,8.320623E1],"tree_param":{"num_deleted":"0","num_feature":"30","num_nodes":"75","size_leaf_vector":"1"}},{"base_weights":[2.9078794E-5,1.2742405E0,-1.0221967E0,1.3602576E0,4.6921262E-1,-1.2008901E0,-1.6662824E-1,-1.320702E-1,1.3619883E0,-2.2151761E-1,1.2016491E0,-1.2243963E0,4.0338984E-1,5.6976324E-1,-9.0991414E-1,1.3628714E0,-1.2813151E-1,-1.0821182E0,9.112504E-1,-1.3461015E-1,1.2700927E0,-5.41428E-1,-1.2657804E0,-1.3854836E-1,1.1754678E0,7.967575E-1,-1.3748182E-1,-1.1978308E0,2.0671426E-1,-1.18307665E-1,1.3632523E0,1.0727975E0,-1.3669632E-1,1.1302345E0,-1.5369247E0,1.3027072E0,-1.6740756E0,-1.3781977E-1,1.24359764E-1,-1.3213519E0,-9.011201E-1,1.3968902E0,-1.3880605E-1,1.1977724E0,-6.254155E-2,-1.4003152E0,-8.210259E-2,-1.418899E-1,8.331711E-1,1.3658725E-1,1.11039795E-1,-1.3642497E-1,1.3656065E-1,1.24390654E-1,-1.5710509E-1,-1.8255644E-1,-1.3419716E-1,1.324303E-1,-1.621298E-1,-1.2789777E-1,-1.9966821E-1,-1.3909976E-1,7.8615956E-2,-1.3365851E-1,2.1061141E-2,-2.3767725E-2,-1.3851418E-1,1.4317277E-1,-1.1813754E-1,-1.5738514E-1,1.2758662E-1,5.19265E-2,-1.653596E-1,-1.4605048E-1,-1.3844913E-1,1.281269E-1,-1.4867537E-1,1.155889E-1,-1.4599322E-1],"categories":[],"categories_nodes":[],"categories_segments":[],"categories_sizes":[],"default_left":[0,0,0,0,0,0,0,0,0,0,0,0,0,0,0,0,0,0,0,0,0,0,0,0,0,0,0,0,0,0,0,0,0,0,0,0,0,0,0,0,0,0,0,0,0,0,0,0,0,0,0,0,0,0,0,0,0,0,0,0,0,0,0,0,0,0,0,0,0,0,0,0,0,0,0,0,0,0,0],"id":6,"left_children":[1,3,5,7,9,11,13,-1,15,17,19,21,23,25,27,29,-1,31,33,-1,35,37,39,-1,41,43,-1,45,47,-1,49,51,-1,53,55,57,59,-1,61,63,65,67,-1,69,71,73,75,-1,77,-1,-1,-1,-1,-1,-1,-1,-1,-1,-1,-1,-1,-1,-1,-1,-1,-1,-1,-1,-1,-1,-1,-1,-1,-1,-1,-1,-1,-1,-1],"loss_changes":[1.183888E5,2.8009844E3,7.710133E3,1.7139062E2,1.9769982E3,1.5737383E3,4.7704253E3,0E0,8.703125E1,1.9621255E3,3.3241968E2,1.1614375E3,8.347382E2,1.9336692E3,1.3946904E3,3.7023438E1,0E0,7.0345764E2,4.676516E2,0E0,1.7957544E2,1.309853E3,7.8440625E2,0E0,2.414118E2,1.35128E3,0E0,7.7893896E2,9.0750165E2,0E0,2.2671875E1,9.754295E1,0E0,2.4707611E2,1.5891113E0,1.1756128E2,8.199692E-2,0E0,1.3149402E3,7.8528125E2,1.6469092E3,3.661743E1,0E0,5.806904E2,1.1566848E3,7.573242E-1,1.01833167E3,0E0,4.7754898E2,0E0,0E0,0E0,0E0,0E0,0E0,0E0,0E0,0E0,0E0,0E0,0E0,0E0,0E0,0E0,0E0,0E0,0E0,0E0,0E0,0E0,0E0,0E0,0E0,0E0,0E0,0E0,0E0,0E0,0E0],"parents":[2147483647,0,0,1,1,2,2,3,3,4,4,5,5,6,6,8,8,9,9,10,10,11,11,12,12,13,13,14,14,15,15,17,17,18,18,20,20,21,21,22,22,24,24,25,25,27,27,28,28,30,30,31,31,33,33,34,34,35,35,36,36,38,38,39,39,40,40,41,41,43,43,44,44,45,45,46,46,48,48],"right_children":[2,4,6,8,10,12,14,-1,16,18,20,22,24,26,28,30,-1,32,34,-1,36,38,40,-1,42,44,-1,46,48,-1,50,52,-1,54,56,58,60,-1,62,64,66,68,-1,70,72,74,76,-1,78,-1,-1,-1,-1,-1,-1,-1,-1,-1,-1,-1,-1,-1,-1,-1,-1,-1,-1,-1,-1,-1,-1,-1,-1,-1,-1,-1,-1,-1,-1],"split_conditions":[-1.8863105E0,-1.4392083E0,9.8694974E-1,-4.4827467E-1,1.3424487E0,2.4724984E0,-4.927846E-1,-1.320702E-1,1.0302951E0,7.375366E-2,5.0694376E-2,-7.590549E-1,8.391229E-1,8.4498763E-1,9.989968E-1,-6.911135E-1,-1.2813151E-1,-2.090823E0,1.6084255E-1,-1.3461015E-1,3.4230524E-1,-1.5020719E-1,8.3616817E-1,-1.3854836E-1,5.574152E-1,2.9241902E-1,-1.3748182E-1,8.739976E-1,1.7307576E0,-1.18307665E-1,-2.7826564E0,9.013887E-1,-1.3669632E-1,-2.4638672E-1,-9.0700024E-1,1.1728655E0,6.1074036E-1,-1.3781977E-1,-4.839865E-2,3.482731E0,-8.489499E-1,6.0746353E-2,-1.3880605E-1,-1.508409E0,-6.1170496E-2,-8.8136025E-2,-3.4370407E-1,-1.418899E-1,6.109618E-1,1.3658725E-1,1.11039795E-1,-1.3642497E-1,1.3656065E-1,1.24390654E-1,-1.5710509E-1,-1.8255644E-1,-1.3419716E-1,1.324303E-1,-1.621298E-1,-1.2789777E-1,-1.9966821E-1,-1.3909976E-1,7.8615956E-2,-1.3365851E-1,2.1061141E-2,-2.3767725E-2,-1.3851418E-1,1.4317277E-1,-1.1813754E-1,-1.5738514E-1,1.2758662E-1,5.19265E-2,-1.653596E-1,-1.4605048E-1,-1.3844913E-1,1.281269E-1,-1.4867537E-1,1.155889E-1,-1.4599322E-1],"split_indices":[14,12,4,4,4,7,12,0,10,29,28,20,19,3,11,11,0,10,11,0,23,4,17,0,6,14,0,7,4,0,14,4,0,26,10,2,18,0,28,29,14,21,0,11,18,8,29,0,10,0,0,0,0,0,0,0,0,0,0,0,0,0,0,0,0,0,0,0,0,0,0,0,0,0,0,0,0,0,0],"split_type":[0,0,0,0,0,0,0,0,0,0,0,0,0,0,0,0,0,0,0,0,0,0,0,0,0,0,0,0,0,0,0,0,0,0,0,0,0,0,0,0,0,0,0,0,0,0,0,0,0,0,0,0,0,0,0,0,0,0,0,0,0,0,0,0,0,0,0,0,0,0,0,0,0,0,0,0,0,0,0],"sum_hessian":[9.0889305E4,4.0457945E4,5.043136E4,3.655171E4,3.9062334E3,4.17178E4,8.713556E3,2.3088781E1,3.6528625E4,2.0107122E3,1.8955212E3,4.11156E4,6.022E2,4.3771953E3,4.3363604E3,3.6516906E4,1.1716368E1,1.1426493E3,8.680629E2,4.910136E1,1.8464198E3,2.349845E3,3.8765758E4,1.8131232E2,4.208877E2,3.9201765E3,4.570185E2,3.4473955E3,8.8896497E2,4.9979763E0,3.651191E4,1.3308269E2,1.0095666E3,7.9728577E2,7.077718E1,1.8267413E3,1.967853E1,1.0407494E3,1.3090956E3,3.36371E4,5.128655E3,3.878432E2,3.304449E1,2.6725605E3,1.247616E3,2.9176414E3,5.2975415E2,2.4693092E2,6.42034E2,3.6133094E4,3.7881613E2,1.3882176E1,1.19200516E2,7.65608E2,3.1677803E1,2.51609E1,4.5616287E1,1.8138916E3,1.2849636E1,1.107699E1,8.601541E0,3.975965E2,9.1149915E2,3.330605E4,3.3105258E2,2.16399E3,2.964665E3,3.831113E2,4.7318997E0,7.271402E1,2.5998467E3,9.140468E2,3.3356915E2,5.883661E2,2.3292754E3,2.6887177E2,2.608824E2,5.632601E2,7.877397E1],"tree_param":{"num_deleted":"0","num_feature":"30","num_nodes":"79","size_leaf_vector":"1"}},{"base_weights":[2.8942228E-5,1.2292591E0,-9.768701E-1,1.3129282E0,4.5013306E-1,-1.1490833E0,-1.5886751E-1,-1.2724519E-1,1.314605E0,-2.130795E-1,1.1542978E0,-9.174167E-1,-1.3060637E0,5.3458446E-1,-8.7279594E-1,1.3154639E0,-1.23209715E-1,-1.0445542E0,8.671042E-1,1.2185873E0,-1.3731422E-1,-1.0362465E0,1.4607099E-1,-1.3277751E0,1.4299165E-1,7.456861E-1,-1.3264091E-1,-1.1521927E0,1.9484118E-1,-1.13411084E-1,1.3158375E0,1.0327634E0,-1.3198616E-1,1.0957392E0,-1.32713E-1,1.2503518E0,-1.5321867E-1,-3.9446825E-1,-1.2231731E0,1.7715532E0,-5.248481E-1,-1.3465104E0,1.8566996E-1,1.8698622E0,-1.3307388E-1,1.1296821E0,-5.848582E-2,-1.3491367E0,-7.859229E-2,-1.3649504E-1,7.837649E-1,1.3160706E-1,-1.3421911E-1,-1.3048439E-1,1.3171355E-1,1.20086275E-1,-1.6216026E-1,-2.106949E-1,1.2680651E-1,4.9430635E-2,-1.3982515E-1,-1.279081E-1,3.238844E-2,-1.344914E-1,2.0942126E-1,5.0786316E-2,-1.3794006E-1,-1.4180203E-1,-1.336212E-1,-1.3605791E-1,1.4620826E-1,-1.4543615E-1,2.0881784E-1,1.2055617E-1,-1.643599E-1,-1.6616677E-1,4.8385646E-2,-1.3963738E-1,-1.3335934E-1,1.214168E-1,-1.4243434E-1,1.0851611E-1,-1.4011024E-1],"categories":[],"categories_nodes":[],"categories_segments":[],"categories_sizes":[],"default_left":[0,0,0,0,0,0,0,0,0,0,0,0,0,0,0,0,0,0,0,0,0,0,0,0,0,0,0,0,0,0,0,0,0,0,0,0,0,0,0,0,0,0,0,0,0,0,0,0,0,0,0,0,0,0,0,0,0,0,0,0,0,0,0,0,0,0,0,0,0,0,0,0,0,0,0,0,0,0,0,0,0,0,0],"id":7,"left_children":[1,3,5,7,9,11,13,-1,15,17,19,21,23,25,27,29,-1,31,33,35,-1,37,39,41,43,45,-1,47,49,-1,51,53,-1,55,-1,57,-1,59,61,63,65,67,69,71,-1,73,75,77,79,-1,81,-1,-1,-1,-1,-1,-1,-1,-1,-1,-1,-1,-1,-1,-1,-1,-1,-1,-1,-1,-1,-1,-1,-1,-1,-1,-1,-1,-1,-1,-1,-1,-1],"loss_changes":[1.0271881E5,2.468621E3,6.713949E3,1.4996094E2,1.716374E3,1.430668E3,4.104752E3,0E0,7.638672E1,1.7012974E3,2.913047E2,2.0103184E3,7.384844E2,1.6533699E3,1.2188118E3,3.276953E1,0E0,6.134237E2,4.148396E2,1.5384644E2,0E0,1.7159727E3,1.7453704E3,6.5583203E2,8.864013E2,1.1667627E3,0E0,6.845337E2,7.802148E2,0E0,2.2917969E1,8.53441E1,0E0,2.1527368E2,0E0,1.0492847E2,0E0,2.881259E3,9.587617E2,4.7297632E2,1.0005893E3,1.4925781E1,5.617091E2,1.1940204E2,0E0,5.401033E2,1.0632957E3,1.4648438E-1,8.767733E2,0E0,4.0739426E2,0E0,0E0,0E0,0E0,0E0,0E0,0E0,0E0,0E0,0E0,0E0,0E0,0E0,0E0,0E0,0E0,0E0,0E0,0E0,0E0,0E0,0E0,0E0,0E0,0E0,0E0,0E0,0E0,0E0,0E0,0E0,0E0],"parents":[2147483647,0,0,1,1,2,2,3,3,4,4,5,5,6,6,8,8,9,9,10,10,11,11,12,12,13,13,14,14,15,15,17,17,18,18,19,19,21,21,22,22,23,23,24,24,25,25,27,27,28,28,30,30,31,31,33,33,35,35,37,37,38,38,39,39,40,40,41,41,42,42,43,43,45,45,46,46,47,47,48,48,50,50],"right_children":[2,4,6,8,10,12,14,-1,16,18,20,22,24,26,28,30,-1,32,34,36,-1,38,40,42,44,46,-1,48,50,-1,52,54,-1,56,-1,58,-1,60,62,64,66,68,70,72,-1,74,76,78,80,-1,82,-1,-1,-1,-1,-1,-1,-1,-1,-1,-1,-1,-1,-1,-1,-1,-1,-1,-1,-1,-1,-1,-1,-1,-1,-1,-1,-1,-1,-1,-1,-1,-1],"split_conditions":[-1.8863105E0,-1.4392083E0,9.8694974E-1,-4.4827467E-1,1.3424487E0,-3.9510715E-1,-4.927846E-1,-1.2724519E-1,1.0302951E0,7.375366E-2,3.8189527E-1,8.7742096E-1,2.1691139E0,8.4498763E-1,9.989968E-1,-6.911135E-1,-1.23209715E-1,-2.090823E0,-9.0700024E-1,3.4230524E-1,-1.3731422E-1,-5.247661E-1,-1.3481704E0,2.664118E0,-1.0971396E0,2.9241902E-1,-1.3264091E-1,8.739976E-1,1.7307576E0,-1.13411084E-1,1.0098195E0,9.013887E-1,-1.3198616E-1,5.288856E-1,-1.32713E-1,-4.1777468E-1,-1.5321867E-1,-2.0818284E-1,1.5066605E0,6.891082E-1,-4.3744724E-2,-8.489499E-1,3.829919E-1,-1.1251878E0,-1.3307388E-1,6.131977E-1,-1.1364929E-2,-5.588937E-2,-3.4370407E-1,-1.3649504E-1,6.109618E-1,1.3160706E-1,-1.3421911E-1,-1.3048439E-1,1.3171355E-1,1.20086275E-1,-1.6216026E-1,-2.106949E-1,1.2680651E-1,4.9430635E-2,-1.3982515E-1,-1.279081E-1,3.238844E-2,-1.344914E-1,2.0942126E-1,5.0786316E-2,-1.3794006E-1,-1.4180203E-1,-1.336212E-1,-1.3605791E-1,1.4620826E-1,-1.4543615E-1,2.0881784E-1,1.2055617E-1,-1.643599E-1,-1.6616677E-1,4.8385646E-2,-1.3963738E-1,-1.3335934E-1,1.214168E-1,-1.4243434E-1,1.0851611E-1,-1.4011024E-1],"split_indices":[14,12,4,4,4,26,12,0,10,29,10,29,11,3,11,11,0,10,10,23,0,14,13,27,14,14,0,7,4,0,1,4,0,16,0,11,0,13,21,11,20,14,3,14,0,1,23,8,29,0,10,0,0,0,0,0,0,0,0,0,0,0,0,0,0,0,0,0,0,0,0,0,0,0,0,0,0,0,0,0,0,0,0],"split_type":[0,0,0,0,0,0,0,0,0,0,0,0,0,0,0,0,0,0,0,0,0,0,0,0,0,0,0,0,0,0,0,0,0,0,0,0,0,0,0,0,0,0,0,0,0,0,0,0,0,0,0,0,0,0,0,0,0,0,0,0,0,0,0,0,0,0,0,0,0,0,0,0,0,0,0,0,0,0,0,0,0,0,0],"sum_hessian":[8.553757E4,3.7876895E4,4.766068E4,3.4203188E4,3.673707E3,3.9371453E4,8.289228E3,2.1678432E1,3.4181508E4,1.8922255E3,1.7814816E3,1.5905493E4,2.3465957E4,4.2050425E3,4.084185E3,3.417047E4,1.1040744E1,1.0692217E3,8.230037E2,1.7377958E3,4.368576E1,1.4306922E4,1.5985721E3,2.3119637E4,3.4632153E2,3.777178E3,4.2786456E2,3.2369958E3,8.471891E2,4.7484503E0,3.416572E4,1.2479978E2,9.4442194E2,7.45794E2,7.720972E1,1.718497E3,1.9298824E1,3.2278398E3,1.1079082E4,4.6656128E2,1.1320109E3,2.2837041E4,2.8259604E2,1.5934148E2,1.8698007E2,2.5561836E3,1.2209944E3,2.73502E3,5.0197583E2,2.3183794E2,6.153512E2,3.416323E4,2.4896665E0,1.3146216E1,1.11653564E2,7.18554E2,2.7240005E1,8.400292E0,1.7100967E3,1.7122653E3,1.5155746E3,1.0692835E4,3.8624637E2,4.3475616E1,4.2308566E2,5.1275793E2,6.192529E2,2.8576636E3,1.9979377E4,1.2776061E2,1.5483543E2,9.470828E0,1.4987064E2,2.488657E3,6.7526726E1,3.0811935E2,9.1287506E2,6.551489E2,2.079871E3,2.5607852E2,2.4589731E2,5.411978E2,7.4153366E1],"tree_param":{"num_deleted":"0","num_feature":"30","num_nodes":"83","size_leaf_vector":"1"}},{"base_weights":[-1.1161477E-4,1.1910877E0,-9.374755E-1,1.2728627E0,4.3363404E-1,-1.1043967E0,-1.5194833E-1,-1.2308752E-1,1.2744951E0,-2.0596173E-1,1.1120996E0,-8.737443E-1,-1.2631711E0,5.0233936E-1,-8.4084255E-1,1.2753345E0,-1.1891414E-1,-1.0128106E0,8.304445E-1,-1.2758705E-1,1.1775221E0,-9.8912776E-1,1.336579E-1,-1.2847091E0,1.3067931E-1,6.988041E-1,-1.2855308E-1,-1.113504E0,1.8411393E-1,1.2785969E0,9.699292E-1,9.986712E-1,-1.2800814E-1,1.0356168E0,-1.4477223E0,-1.3622187E-1,1.2143489E0,-3.6558354E-1,-1.1784391E0,1.6052275E0,-4.9406505E-1,-1.3032091E0,1.7370269E-1,1.6861947E0,-1.2887268E-1,1.0684046E0,-5.466831E-2,-1.3060135E-1,-7.562664E-2,-1.3194558E-1,7.390607E-1,1.2796493E-1,1.1707219E-1,-3.4569353E-1,1.2740897E-1,-1.2539178E-1,1.2760857E-1,1.14085495E-1,-1.5547225E-1,-1.710466E-1,-1.2529264E-1,-1.8729351E-1,1.2343526E-1,4.389013E-2,-1.3478175E-1,3.303795E-2,-1.2353595E-1,-1.2975165E-1,1.8874544E-1,5.080054E-2,-1.3448112E-1,-1.3646226E-1,-1.2942977E-1,-1.314383E-1,1.3538192E-1,-1.3769457E-1,1.8795823E-1,-1.5277877E-1,1.1430802E-1,4.6847414E-2,-1.6373846E-1,1.15462355E-1,-1.3719356E-1,1.0209882E-1,-1.3512485E-1],"categories":[],"categories_nodes":[],"categories_segments":[],"categories_sizes":[],"default_left":[0,0,0,0,0,0,0,0,0,0,0,0,0,0,0,0,0,0,0,0,0,0,0,0,0,0,0,0,0,0,0,0,0,0,0,0,0,0,0,0,0,0,0,0,0,0,0,0,0,0,0,0,0,0,0,0,0,0,0,0,0,0,0,0,0,0,0,0,0,0,0,0,0,0,0,0,0,0,0,0,0,0,0,0,0],"id":8,"left_children":[1,3,5,7,9,11,13,-1,15,17,19,21,23,25,27,29,-1,31,33,-1,35,37,39,41,43,45,-1,47,49,51,53,55,-1,57,59,-1,61,63,65,67,69,71,73,75,-1,77,79,-1,81,-1,83,-1,-1,-1,-1,-1,-1,-1,-1,-1,-1,-1,-1,-1,-1,-1,-1,-1,-1,-1,-1,-1,-1,-1,-1,-1,-1,-1,-1,-1,-1,-1,-1,-1,-1],"loss_changes":[8.954004E4,2.1868164E3,5.8841367E3,1.3183984E2,1.4940935E3,1.3543281E3,3.5459255E3,0E0,6.7390625E1,1.4833555E3,2.625044E2,1.7545557E3,6.5820703E2,1.4181996E3,1.0711372E3,3.0480469E1,0E0,5.3742694E2,3.6448944E2,0E0,1.5379395E2,1.5981777E3,1.4344005E3,5.82625E2,7.4061896E2,1.01266345E3,0E0,6.046985E2,6.735603E2,2.0742188E0,4.631256E2,7.504536E1,0E0,1.9614221E2,1.1621246E0,0E0,1.01364746E2,2.4940034E3,8.925576E2,3.8281702E2,9.2877856E2,9.8984375E0,4.7815933E2,9.7373505E1,0E0,4.747058E2,9.9235864E2,0E0,7.5858466E2,0E0,3.4872546E2,0E0,0E0,0E0,0E0,0E0,0E0,0E0,0E0,0E0,0E0,0E0,0E0,0E0,0E0,0E0,0E0,0E0,0E0,0E0,0E0,0E0,0E0,0E0,0E0,0E0,0E0,0E0,0E0,0E0,0E0,0E0,0E0,0E0,0E0],"parents":[2147483647,0,0,1,1,2,2,3,3,4,4,5,5,6,6,8,8,9,9,10,10,11,11,12,12,13,13,14,14,15,15,17,17,18,18,20,20,21,21,22,22,23,23,24,24,25,25,27,27,28,28,29,29,30,30,31,31,33,33,34,34,36,36,37,37,38,38,39,39,40,40,41,41,42,42,43,43,45,45,46,46,48,48,50,50],"right_children":[2,4,6,8,10,12,14,-1,16,18,20,22,24,26,28,30,-1,32,34,-1,36,38,40,42,44,46,-1,48,50,52,54,56,-1,58,60,-1,62,64,66,68,70,72,74,76,-1,78,80,-1,82,-1,84,-1,-1,-1,-1,-1,-1,-1,-1,-1,-1,-1,-1,-1,-1,-1,-1,-1,-1,-1,-1,-1,-1,-1,-1,-1,-1,-1,-1,-1,-1,-1,-1,-1,-1],"split_conditions":[-1.8863105E0,-1.4392083E0,9.8694974E-1,-4.4827467E-1,1.3424487E0,-3.9510715E-1,-4.927846E-1,-1.2308752E-1,1.0302951E0,7.375366E-2,5.0694376E-2,8.7742096E-1,2.1691139E0,8.4498763E-1,9.989968E-1,-2.7826564E0,-1.1891414E-1,-2.090823E0,1.6084255E-1,-1.2758705E-1,6.478912E-1,-5.247661E-1,-1.3481704E0,2.664118E0,-1.0971396E0,2.9241902E-1,-1.2855308E-1,8.739976E-1,1.7307576E0,-1.8841089E0,5.751653E-1,9.013887E-1,-1.2800814E-1,-1.7509802E-1,-9.0700024E-1,-1.3622187E-1,-1.6894718E0,-2.0818284E-1,-1.2848663E0,6.891082E-1,-1.0248197E0,-8.489499E-1,3.829919E-1,-1.1251878E0,-1.2887268E-1,-1.508409E0,1.6642168E-2,-1.3060135E-1,-3.4370407E-1,-1.3194558E-1,6.109618E-1,1.2796493E-1,1.1707219E-1,-3.4569353E-1,1.2740897E-1,-1.2539178E-1,1.2760857E-1,1.14085495E-1,-1.5547225E-1,-1.710466E-1,-1.2529264E-1,-1.8729351E-1,1.2343526E-1,4.389013E-2,-1.3478175E-1,3.303795E-2,-1.2353595E-1,-1.2975165E-1,1.8874544E-1,5.080054E-2,-1.3448112E-1,-1.3646226E-1,-1.2942977E-1,-1.314383E-1,1.3538192E-1,-1.3769457E-1,1.8795823E-1,-1.5277877E-1,1.1430802E-1,4.6847414E-2,-1.6373846E-1,1.15462355E-1,-1.3719356E-1,1.0209882E-1,-1.3512485E-1],"split_indices":[14,12,4,4,4,26,12,0,10,29,28,29,11,3,11,14,0,10,11,0,18,14,13,27,14,14,0,7,4,12,6,4,0,8,10,0,9,13,20,11,16,14,3,14,0,11,21,0,29,0,10,0,0,0,0,0,0,0,0,0,0,0,0,0,0,0,0,0,0,0,0,0,0,0,0,0,0,0,0,0,0,0,0,0,0],"split_type":[0,0,0,0,0,0,0,0,0,0,0,0,0,0,0,0,0,0,0,0,0,0,0,0,0,0,0,0,0,0,0,0,0,0,0,0,0,0,0,0,0,0,0,0,0,0,0,0,0,0,0,0,0,0,0,0,0,0,0,0,0,0,0,0,0,0,0,0,0,0,0,0,0,0,0,0,0,0,0,0,0,0,0,0,0],"sum_hessian":[8.0188805E4,3.5312945E4,4.487586E4,3.1871416E4,3.4415305E3,3.7010812E4,7.8650474E3,2.0275656E1,3.185114E4,1.7718694E3,1.6696611E3,1.5092444E4,2.191837E4,4.0339824E3,3.8310647E3,3.1840773E4,1.0366518E1,9.9628107E2,7.755883E2,4.4029964E1,1.6256311E3,1.3541481E4,1.5509633E3,2.1584914E4,3.33455E2,3.6351355E3,3.9884708E2,3.0259956E3,8.050693E2,3.1501092E4,3.396826E2,1.16531075E2,8.7975E2,7.1200995E2,6.3578354E1,2.2720705E1,1.6029104E3,3.15445E3,1.0387031E4,4.6329788E2,1.0876654E3,2.1314645E4,2.7026926E2,1.5900967E2,1.7444531E2,2.4385408E3,1.1965945E3,2.5523228E3,4.7367273E2,2.1666383E2,5.884054E2,3.1185984E4,3.1510788E2,2.117199E1,3.185106E2,1.2391643E1,1.04139435E2,6.8475006E2,2.7259909E1,2.3755604E1,3.982275E1,9.722694E0,1.5931877E3,1.7344369E3,1.420013E3,3.7743198E2,1.00096E4,4.0735023E1,4.2256287E2,4.9960147E2,5.8806396E2,2.6816345E3,1.863301E4,1.1948681E2,1.5078246E2,9.079283E0,1.4993039E2,6.7635895E1,2.370905E3,8.9986273E2,2.9673175E2,2.430847E2,2.3058803E2,5.1892737E2,6.9478035E1],"tree_param":{"num_deleted":"0","num_feature":"30","num_nodes":"85","size_leaf_vector":"1"}},{"base_weights":[-2.3395743E-4,1.1583989E0,-9.026677E-1,1.2387006E0,4.1898787E-1,-1.0651418E0,-1.4575881E-1,1.2402941E0,-1.20024316E-1,-1.9960439E-1,1.0764545E0,-8.343587E-1,-1.2267622E0,4.7295925E-1,-8.129464E-1,-1.15948774E-1,1.2412701E0,-9.8573834E-1,7.9435676E-1,1.1358845E0,-1.3917422E-1,-1.5239824E-1,-1.0005486E0,-1.2481219E0,1.21150024E-1,6.5611553E-1,-1.2506902E-1,-1.0803602E0,1.7426644E-1,1.2415743E0,-1.6589215E-1,9.693092E-1,-1.24618255E-1,1.0098085E0,-1.2652574E-1,1.173882E0,-1.4094973E-1,8.457705E-1,-8.124792E-1,-1.1019924E0,4.4447997E-1,-1.2664504E0,1.634044E-1,1.5493594E0,-1.252883E-1,1.0133371E0,-5.122288E-2,-1.2693778E-1,-7.308662E-2,-1.2806846E-1,6.980099E-1,1.2445742E-1,9.6100576E-2,-1.2096526E-1,1.2409735E-1,1.0936689E-1,-2.0767096E-1,1.195815E-1,-1.4119922E-1,-1.301608E-1,1.3557659E-1,9.7708754E-2,-1.288215E-1,-4.3377094E-2,-1.2232478E-1,-1.3265097E-1,1.146101E-1,-1.3196112E-1,-1.2586828E-1,-1.2927812E-1,1.2497467E-1,-1.3113333E-1,1.7251892E-1,1.08654E-1,-1.6047387E-1,-1.5649872E-1,4.8432473E-2,1.1008616E-1,-1.3273974E-1,-1.5606458E-1,9.4810605E-2],"categories":[],"categories_nodes":[],"categories_segments":[],"categories_sizes":[],"default_left":[0,0,0,0,0,0,0,0,0,0,0,0,0,0,0,0,0,0,0,0,0,0,0,0,0,0,0,0,0,0,0,0,0,0,0,0,0,0,0,0,0,0,0,0,0,0,0,0,0,0,0,0,0,0,0,0,0,0,0,0,0,0,0,0,0,0,0,0,0,0,0,0,0,0,0,0,0,0,0,0,0],"id":9,"left_children":[1,3,5,7,9,11,13,15,-1,17,19,21,23,25,27,-1,29,31,33,35,-1,37,39,41,43,45,-1,47,49,51,-1,53,-1,55,-1,57,-1,59,61,63,65,67,69,71,-1,73,75,-1,77,-1,79,-1,-1,-1,-1,-1,-1,-1,-1,-1,-1,-1,-1,-1,-1,-1,-1,-1,-1,-1,-1,-1,-1,-1,-1,-1,-1,-1,-1,-1,-1],"loss_changes":[7.834723E4,1.9475156E3,5.1800156E3,1.1650391E2,1.3079867E3,1.2924609E3,3.0737368E3,7.070703E1,0E0,1.296004E3,2.3025452E2,1.6189854E3,5.8729297E2,1.2205186E3,9.459773E2,0E0,2.8140625E1,4.727121E2,3.2636154E2,1.4894116E2,0E0,1.8458546E3,1.6843291E3,5.195781E2,6.280119E2,8.826655E2,0E0,5.3665137E2,5.8343384E2,2.3683594E1,0E0,6.627186E1,0E0,1.7407825E2,0E0,8.6818115E1,0E0,1.2231359E3,1.4368597E3,8.691631E2,9.3867523E2,6.5214844E0,4.100974E2,8.117169E1,0E0,4.4656104E2,9.5176135E2,0E0,6.5892267E2,0E0,3.1937558E2,0E0,0E0,0E0,0E0,0E0,0E0,0E0,0E0,0E0,0E0,0E0,0E0,0E0,0E0,0E0,0E0,0E0,0E0,0E0,0E0,0E0,0E0,0E0,0E0,0E0,0E0,0E0,0E0,0E0,0E0],"parents":[2147483647,0,0,1,1,2,2,3,3,4,4,5,5,6,6,7,7,9,9,10,10,11,11,12,12,13,13,14,14,16,16,17,17,18,18,19,19,21,21,22,22,23,23,24,24,25,25,27,27,28,28,29,29,31,31,33,33,35,35,37,37,38,38,39,39,40,40,41,41,42,42,43,43,45,45,46,46,48,48,50,50],"right_children":[2,4,6,8,10,12,14,16,-1,18,20,22,24,26,28,-1,30,32,34,36,-1,38,40,42,44,46,-1,48,50,52,-1,54,-1,56,-1,58,-1,60,62,64,66,68,70,72,-1,74,76,-1,78,-1,80,-1,-1,-1,-1,-1,-1,-1,-1,-1,-1,-1,-1,-1,-1,-1,-1,-1,-1,-1,-1,-1,-1,-1,-1,-1,-1,-1,-1,-1,-1],"split_conditions":[-1.8863105E0,-1.4392083E0,9.8694974E-1,1.0302951E0,1.3424487E0,-3.9510715E-1,-4.927846E-1,-6.7954695E-1,-1.20024316E-1,7.375366E-2,-1.6471942E-1,-8.959098E-1,2.1691139E0,8.4498763E-1,9.989968E-1,-1.15948774E-1,2.4397568E-1,-2.090823E0,-9.0700024E-1,3.4230524E-1,-1.3917422E-1,-7.294829E-1,1.7161472E0,2.664118E0,-1.0971396E0,2.9241902E-1,-1.2506902E-1,8.739976E-1,1.7307576E0,-2.7826564E0,-1.6589215E-1,9.013887E-1,-1.24618255E-1,4.9751945E-2,-1.2652574E-1,1.1728655E0,-1.4094973E-1,2.2214465E-1,-6.154379E-1,-3.4851766E-1,8.391229E-1,-8.489499E-1,1.2196734E0,-1.1251878E0,-1.252883E-1,6.131977E-1,2.0091863E0,-1.2693778E-1,-3.4370407E-1,-1.2806846E-1,1.4483679E-2,1.2445742E-1,9.6100576E-2,-1.2096526E-1,1.2409735E-1,1.0936689E-1,-2.0767096E-1,1.195815E-1,-1.4119922E-1,-1.301608E-1,1.3557659E-1,9.7708754E-2,-1.288215E-1,-4.3377094E-2,-1.2232478E-1,-1.3265097E-1,1.146101E-1,-1.3196112E-1,-1.2586828E-1,-1.2927812E-1,1.2497467E-1,-1.3113333E-1,1.7251892E-1,1.08654E-1,-1.6047387E-1,-1.5649872E-1,4.8432473E-2,1.1008616E-1,-1.3273974E-1,-1.5606458E-1,9.4810605E-2],"split_indices":[14,12,4,10,4,26,12,11,0,29,19,19,11,3,11,0,3,10,10,23,0,13,29,27,14,14,0,7,4,14,0,4,0,27,0,2,0,4,21,29,19,14,15,14,0,1,4,0,29,0,24,0,0,0,0,0,0,0,0,0,0,0,0,0,0,0,0,0,0,0,0,0,0,0,0,0,0,0,0,0,0],"split_type":[0,0,0,0,0,0,0,0,0,0,0,0,0,0,0,0,0,0,0,0,0,0,0,0,0,0,0,0,0,0,0,0,0,0,0,0,0,0,0,0,0,0,0,0,0,0,0,0,0,0,0,0,0,0,0,0,0,0,0,0,0,0,0,0,0,0,0,0,0,0,0,0,0,0,0,0,0,0,0,0,0],"sum_hessian":[7.4929164E4,3.2807457E4,4.212171E4,2.959292E4,3.2145388E3,3.467759E4,7.444118E3,2.9574088E4,1.883035E1,1.6565929E3,1.557946E3,1.4285299E4,2.0392293E4,3.8625054E3,3.5816128E3,1.1539449E1,2.9562549E4,9.250052E2,7.315877E2,1.5218424E3,3.6103554E1,2.799494E3,1.1485805E4,2.007426E4,3.1803214E2,3.4920562E3,3.704492E2,2.818146E3,7.6346686E2,2.956002E4,2.5287538E0,1.0841992E2,8.1658527E2,6.6276685E2,6.882086E1,1.4999894E3,2.185306E1,1.1142513E3,1.6852426E3,1.0732595E4,7.5321075E2,1.9817041E4,2.5721964E2,1.558792E2,1.6215294E2,2.3199814E3,1.1720748E3,2.3726514E3,4.454946E2,2.0170059E2,5.6176624E2,2.9243898E4,3.1612207E2,1.1636144E1,9.6783775E1,6.4586444E2,1.6902397E1,1.4879069E3,1.2082578E1,2.13546E2,9.007054E2,3.5369617E2,1.3315464E3,1.6491172E3,9.083478E3,2.1347624E2,5.3973456E2,2.5049202E3,1.7312121E4,1.0982066E2,1.4739896E2,8.652234E0,1.4722697E2,2.2574468E3,6.2534477E1,3.057965E2,8.662783E2,2.3018227E2,2.1531233E2,5.5479782E1,5.0628647E2],"tree_param":{"num_deleted":"0","num_feature":"30","num_nodes":"81","size_leaf_vector":"1"}},{"base_weights":[-3.5863253E-4,1.1300111E0,-8.7122196E-1,1.2091813E0,4.0580928E-1,-1.1093175E0,-3.7821355E-1,-1.1638907E-1,1.2107503E0,-1.9391909E-1,1.0442419E0,-1.1671782E0,-4.3937024E-1,3.7965608E-1,-8.005381E-1,1.2115592E0,-1.1157917E-1,-9.624682E-1,7.614545E-1,-1.2198096E-1,1.1073011E0,-6.156096E-1,-1.2144482E0,4.8079947E-1,-1.2652116E-1,5.5885595E-1,-1.2338346E-1,1.3369347E-1,-1.0629977E0,1.2151129E0,8.902271E-1,9.4375855E-1,-1.217075E-1,9.5764387E-1,-1.3814517E0,-1.2989818E-1,1.1431664E0,5.0307214E-1,-1.0212226E0,-1.2378316E0,-6.005361E-1,-5.933839E-1,1.2261604E0,9.5950806E-1,-1.385497E-1,-1.2891623E-1,4.1264334E0,-1.2594001E0,-7.6844594E-3,1.21725954E-1,1.14386335E-1,-3.0188146E-1,1.21173024E-1,-1.1706828E-1,1.2106755E-1,1.0673582E-1,-1.4756146E-1,-1.6101857E-1,-1.1864405E-1,-2.241606E-1,1.1633926E-1,-1.2586443E-1,1.7702727E-1,-1.2373054E-1,1.1757332E-1,-1.2960543E-1,-1.2297191E-1,-1.2437173E-1,1.5371266E-1,-1.2860708E-1,9.157857E-2,1.5058263E-1,-1.3025229E-1,-4.7109343E-2,1.1039181E-1,1.0476672E-1,-7.8121915E-2,5.6002866E-2,-1.3086905E-1,4.9262604E-1,-1.1840917E-1,-1.5178172E-1,-1.2532492E-1,-1.2607154E-1,8.905996E-2],"categories":[],"categories_nodes":[],"categories_segments":[],"categories_sizes":[],"default_left":[0,0,0,0,0,0,0,0,0,0,0,0,0,0,0,0,0,0,0,0,0,0,0,0,0,0,0,0,0,0,0,0,0,0,0,0,0,0,0,0,0,0,0,0,0,0,0,0,0,0,0,0,0,0,0,0,0,0,0,0,0,0,0,0,0,0,0,0,0,0,0,0,0,0,0,0,0,0,0,0,0,0,0,0,0],"id":10,"left_children":[1,3,5,7,9,11,13,-1,15,17,19,21,23,25,27,29,-1,31,33,-1,35,37,39,41,-1,43,-1,45,47,49,51,53,-1,55,57,-1,59,61,63,65,67,69,71,73,75,77,79,81,83,-1,-1,-1,-1,-1,-1,-1,-1,-1,-1,-1,-1,-1,-1,-1,-1,-1,-1,-1,-1,-1,-1,-1,-1,-1,-1,-1,-1,-1,-1,-1,-1,-1,-1,-1,-1],"loss_changes":[6.875343E4,1.7421094E3,4.63034E3,1.03421875E2,1.1475879E3,1.0306738E3,4.1128525E3,0E0,5.2878906E1,1.135899E3,2.0860254E2,6.376836E2,1.6089315E3,1.3303208E3,2.0233716E3,3.0171875E1,0E0,4.1719177E2,2.9132327E2,0E0,1.2341675E2,8.784775E2,3.23E2,8.028078E2,0E0,1.1568134E3,0E0,1.8990009E3,1.3351597E3,2.7460938E0,3.8462854E2,5.874037E1,0E0,1.704372E2,6.885681E-1,0E0,9.794824E1,1.1531538E3,6.7573193E2,8.671875E0,1.142303E3,4.3087668E2,4.2042877E2,5.437173E2,1.1529596E3,1.382353E3,4.805652E2,6.729492E0,1.1399471E3,0E0,0E0,0E0,0E0,0E0,0E0,0E0,0E0,0E0,0E0,0E0,0E0,0E0,0E0,0E0,0E0,0E0,0E0,0E0,0E0,0E0,0E0,0E0,0E0,0E0,0E0,0E0,0E0,0E0,0E0,0E0,0E0,0E0,0E0,0E0,0E0],"parents":[2147483647,0,0,1,1,2,2,3,3,4,4,5,5,6,6,8,8,9,9,10,10,11,11,12,12,13,13,14,14,15,15,17,17,18,18,20,20,21,21,22,22,23,23,25,25,27,27,28,28,29,29,30,30,31,31,33,33,34,34,36,36,37,37,38,38,39,39,40,40,41,41,42,42,43,43,44,44,45,45,46,46,47,47,48,48],"right_children":[2,4,6,8,10,12,14,-1,16,18,20,22,24,26,28,30,-1,32,34,-1,36,38,40,42,-1,44,-1,46,48,50,52,54,-1,56,58,-1,60,62,64,66,68,70,72,74,76,78,80,82,84,-1,-1,-1,-1,-1,-1,-1,-1,-1,-1,-1,-1,-1,-1,-1,-1,-1,-1,-1,-1,-1,-1,-1,-1,-1,-1,-1,-1,-1,-1,-1,-1,-1,-1,-1,-1],"split_conditions":[-1.8863105E0,-1.4392083E0,5.266215E-1,-4.4827467E-1,1.3424487E0,8.7742096E-1,-5.644803E-1,-1.1638907E-1,1.0302951E0,7.375366E-2,5.0694376E-2,-9.969373E-1,-6.8497366E-1,8.4498763E-1,-3.4370407E-1,-2.7826564E0,-1.1157917E-1,-2.090823E0,1.6084255E-1,-1.2198096E-1,6.478912E-1,-6.8220496E-1,1.7454641E0,3.2733575E-2,-1.2652116E-1,3.5951307E-1,-1.2338346E-1,1.5701697E0,9.958981E-1,2.600733E0,5.751653E-1,9.013887E-1,-1.217075E-1,-2.4638672E-1,-9.0700024E-1,-1.2989818E-1,-4.1777468E-1,3.917096E-1,1.8324754E0,-8.489499E-1,1.4527825E0,-2.5886811E-2,5.4362487E-2,-1.1132162E0,-3.492798E-1,-3.902223E-1,-8.531403E-1,-4.927846E-1,6.571313E-1,1.21725954E-1,1.14386335E-1,-3.0188146E-1,1.21173024E-1,-1.1706828E-1,1.2106755E-1,1.0673582E-1,-1.4756146E-1,-1.6101857E-1,-1.1864405E-1,-2.241606E-1,1.1633926E-1,-1.2586443E-1,1.7702727E-1,-1.2373054E-1,1.1757332E-1,-1.2960543E-1,-1.2297191E-1,-1.2437173E-1,1.5371266E-1,-1.2860708E-1,9.157857E-2,1.5058263E-1,-1.3025229E-1,-4.7109343E-2,1.1039181E-1,1.0476672E-1,-7.8121915E-2,5.6002866E-2,-1.3086905E-1,4.9262604E-1,-1.1840917E-1,-1.5178172E-1,-1.2532492E-1,-1.2607154E-1,8.905996E-2],"split_indices":[14,12,4,4,4,29,12,0,10,29,28,6,26,3,29,14,0,10,11,0,18,14,16,4,0,14,0,13,18,17,6,4,0,26,10,0,11,3,21,14,19,2,6,11,29,9,26,12,17,0,0,0,0,0,0,0,0,0,0,0,0,0,0,0,0,0,0,0,0,0,0,0,0,0,0,0,0,0,0,0,0,0,0,0,0],"split_type":[0,0,0,0,0,0,0,0,0,0,0,0,0,0,0,0,0,0,0,0,0,0,0,0,0,0,0,0,0,0,0,0,0,0,0,0,0,0,0,0,0,0,0,0,0,0,0,0,0,0,0,0,0,0,0,0,0,0,0,0,0,0,0,0,0,0,0,0,0,0,0,0,0,0,0,0,0,0,0,0,0,0,0,0,0],"sum_hessian":[6.984116E4,3.0392186E4,3.9448973E4,2.739651E4,2.995675E3,2.6600947E4,1.2848025E4,1.761264E1,2.7378896E4,1.5450181E3,1.450657E3,2.4485492E4,2.1154539E3,4.5976157E3,8.25041E3,2.7369861E4,9.036208E0,8.562231E2,6.88795E2,3.88123E1,1.4118447E3,1.9338987E3,2.2551594E4,1.00078076E3,1.1146731E3,4.13862E3,4.589958E2,1.8095966E3,6.4408135E3,2.7067727E4,3.0213483E2,1.0056816E2,7.556549E2,6.315297E2,5.7265278E1,2.0217146E1,1.3916276E3,5.145442E2,1.4193545E3,2.1723162E4,8.284329E2,4.1004492E2,5.9073584E2,2.6283086E3,1.5103113E3,1.6988292E3,1.1076735E2,5.4300444E3,1.01076874E3,2.6260443E4,8.072818E2,2.2323364E1,2.7981146E2,1.0892765E1,8.96754E1,6.0482007E2,2.6709658E1,2.301431E1,3.425097E1,7.6140475E0,1.3840134E3,2.1527142E2,2.9927277E2,1.2926517E3,1.26702705E2,2.6372583E3,1.9085902E4,6.371462E2,1.9128674E2,2.8114932E2,1.288956E2,5.322724E2,5.8463436E1,2.4077748E2,2.3875312E3,5.305009E2,9.798103E2,1.0728496E3,6.2597955E2,9.6331116E1,1.4436231E1,1.205286E2,5.309516E3,4.2187918E2,5.888896E2],"tree_param":{"num_deleted":"0","num_feature":"30","num_nodes":"85","size_leaf_vector":"1"}},{"base_weights":[-6.5070036E-4,1.105356E0,-8.4302825E-1,1.1836883E0,3.938711E-1,-1.081399E0,-3.61101E-1,1.1852301E0,-1.1390298E-1,-1.8894398E-1,1.0152377E0,-1.1389661E0,-4.2380464E-1,3.5642147E-1,-7.684738E-1,-1.0941632E-1,1.186152E0,-9.4232845E-1,7.311468E-1,1.073162E0,-1.3330291E-1,-5.941009E-1,-1.1863236E0,4.5411503E-1,-1.2340736E-1,5.226619E-1,-1.20665036E-1,1.16292134E-1,-1.0325966E0,1.189711E0,8.675206E-1,9.213097E-1,-1.191917E-1,-1.4341632E0,9.193486E-1,1.1103657E0,-1.362962E-1,-1.0016711E0,4.5867148E-1,-1.2103801E0,-5.726414E-1,-5.708168E-1,1.1495942E0,9.025142E-1,-1.2752576E-1,-1.2605822E-1,6.220078E-1,-1.2301313E0,-8.844752E-3,1.19097844E-1,1.06157266E-1,-2.6308787E-1,1.1814358E-1,-1.1359619E-1,1.1843238E-1,-1.9310118E-1,-1.2095989E-1,1.0414096E-1,-1.3836832E-1,1.128654E-1,-2.1656178E-1,-1.21755935E-1,1.1116719E-1,1.8984023E-1,-1.21646345E-1,-1.2613668E-1,-1.2032278E-1,-1.22004144E-1,1.3197114E-1,-1.251964E-1,8.549299E-2,1.4075862E-1,-1.2630886E-1,9.863217E-2,-1.5188624E-1,1.0248909E-1,-7.4946366E-2,1.24088965E-1,-7.241586E-2,-1.4647952E-1,-1.22444294E-1,8.074182E-2,-1.2471612E-1],"categories":[],"categories_nodes":[],"categories_segments":[],"categories_sizes":[],"default_left":[0,0,0,0,0,0,0,0,0,0,0,0,0,0,0,0,0,0,0,0,0,0,0,0,0,0,0,0,0,0,0,0,0,0,0,0,0,0,0,0,0,0,0,0,0,0,0,0,0,0,0,0,0,0,0,0,0,0,0,0,0,0,0,0,0,0,0,0,0,0,0,0,0,0,0,0,0,0,0,0,0,0,0],"id":11,"left_children":[1,3,5,7,9,11,13,15,-1,17,19,21,23,25,27,-1,29,31,33,35,-1,37,39,41,-1,43,-1,45,47,49,51,53,-1,55,57,59,-1,61,63,65,67,69,71,73,75,-1,77,79,81,-1,-1,-1,-1,-1,-1,-1,-1,-1,-1,-1,-1,-1,-1,-1,-1,-1,-1,-1,-1,-1,-1,-1,-1,-1,-1,-1,-1,-1,-1,-1,-1,-1,-1],"loss_changes":[6.0516242E4,1.5646445E3,4.2353086E3,9.194531E1,1.0093661E3,9.3338086E2,3.5673494E3,5.4421875E1,0E0,9.980338E2,1.8490869E2,5.845879E2,1.414247E3,1.1491741E3,1.8192349E3,0E0,2.7625E1,3.6925677E2,2.6550858E2,1.20874756E2,0E0,7.7959753E2,3.0738086E2,6.810952E2,0E0,9.870006E2,0E0,1.2475144E3,1.2123218E3,2.7929688E0,3.1372415E2,5.2232773E1,0E0,3.4920502E0,1.6928143E2,8.019263E1,0E0,5.987471E2,1.2262029E3,5.8027344E0,9.68297E2,3.7647244E2,3.5596484E2,5.133733E2,1.0575577E3,0E0,1.0924365E3,4.914551E0,9.821272E2,0E0,0E0,0E0,0E0,0E0,0E0,0E0,0E0,0E0,0E0,0E0,0E0,0E0,0E0,0E0,0E0,0E0,0E0,0E0,0E0,0E0,0E0,0E0,0E0,0E0,0E0,0E0,0E0,0E0,0E0,0E0,0E0,0E0,0E0],"parents":[2147483647,0,0,1,1,2,2,3,3,4,4,5,5,6,6,7,7,9,9,10,10,11,11,12,12,13,13,14,14,16,16,17,17,18,18,19,19,21,21,22,22,23,23,25,25,27,27,28,28,29,29,30,30,31,31,33,33,34,34,35,35,37,37,38,38,39,39,40,40,41,41,42,42,43,43,44,44,46,46,47,47,48,48],"right_children":[2,4,6,8,10,12,14,16,-1,18,20,22,24,26,28,-1,30,32,34,36,-1,38,40,42,-1,44,-1,46,48,50,52,54,-1,56,58,60,-1,62,64,66,68,70,72,74,76,-1,78,80,82,-1,-1,-1,-1,-1,-1,-1,-1,-1,-1,-1,-1,-1,-1,-1,-1,-1,-1,-1,-1,-1,-1,-1,-1,-1,-1,-1,-1,-1,-1,-1,-1,-1,-1],"split_conditions":[-1.8863105E0,-1.4392083E0,5.266215E-1,1.0302951E0,1.3424487E0,8.7742096E-1,-5.644803E-1,-6.7954695E-1,-1.1390298E-1,7.375366E-2,-1.6471942E-1,-9.969373E-1,-6.8497366E-1,8.4498763E-1,-3.4370407E-1,-1.0941632E-1,-2.7826564E0,-2.090823E0,-5.123984E-1,3.4230524E-1,-1.3330291E-1,2.2214465E-1,1.7454641E0,3.2733575E-2,-1.2340736E-1,3.5951307E-1,-1.20665036E-1,6.714792E-2,9.958981E-1,-1.8841089E0,5.751653E-1,9.013887E-1,-1.191917E-1,-9.394775E-1,5.288856E-1,1.2882785E0,-1.362962E-1,1.8324754E0,2.4346055E-1,-8.489499E-1,-4.1970253E-1,-2.5886811E-2,5.4362487E-2,6.393427E-1,-6.040556E-1,-1.2605822E-1,4.6069732E-1,-4.927846E-1,4.7720415E-3,1.19097844E-1,1.06157266E-1,-2.6308787E-1,1.1814358E-1,-1.1359619E-1,1.1843238E-1,-1.9310118E-1,-1.2095989E-1,1.0414096E-1,-1.3836832E-1,1.128654E-1,-2.1656178E-1,-1.21755935E-1,1.1116719E-1,1.8984023E-1,-1.21646345E-1,-1.2613668E-1,-1.2032278E-1,-1.22004144E-1,1.3197114E-1,-1.251964E-1,8.549299E-2,1.4075862E-1,-1.2630886E-1,9.863217E-2,-1.5188624E-1,1.0248909E-1,-7.4946366E-2,1.24088965E-1,-7.241586E-2,-1.4647952E-1,-1.22444294E-1,8.074182E-2,-1.2471612E-1],"split_indices":[14,12,4,10,4,29,12,11,0,29,19,6,26,3,29,0,14,10,1,23,0,4,16,4,0,14,0,16,18,12,6,4,0,10,16,0,0,21,4,14,4,2,6,1,7,0,16,12,8,0,0,0,0,0,0,0,0,0,0,0,0,0,0,0,0,0,0,0,0,0,0,0,0,0,0,0,0,0,0,0,0,0,0],"split_type":[0,0,0,0,0,0,0,0,0,0,0,0,0,0,0,0,0,0,0,0,0,0,0,0,0,0,0,0,0,0,0,0,0,0,0,0,0,0,0,0,0,0,0,0,0,0,0,0,0,0,0,0,0,0,0,0,0,0,0,0,0,0,0,0,0,0,0,0,0,0,0,0,0,0,0,0,0,0,0,0,0,0,0],"sum_hessian":[6.4952227E4,2.8081746E4,3.687048E4,2.5296064E4,2.7856824E3,2.4667969E4,1.2202511E4,2.5279773E4,1.6290766E1,1.4377917E3,1.3478906E3,2.2681643E4,1.9863264E3,4.419097E3,7.7834136E3,9.740718E0,2.5270033E4,7.904967E2,6.47295E2,1.3159728E3,3.1917812E1,1.8148397E3,2.0866803E4,9.5357513E2,1.0327512E3,3.994887E3,4.2421045E2,1.7894897E3,5.993924E3,2.4988191E4,2.8184067E2,9.3045906E1,6.974508E2,5.1232418E1,5.9606256E2,1.296714E3,1.9258867E1,1.3083671E3,5.0647256E2,2.007874E4,7.880618E2,3.8555685E2,5.6801825E2,2.5214302E3,1.4734567E3,4.803054E2,1.3091843E3,5.024279E3,9.696451E2,2.473524E4,2.5295216E2,2.2599695E1,2.59241E2,1.0170917E1,8.287499E1,1.3582409E1,3.765001E1,5.665815E2,2.9481083E1,1.2901671E3,6.5468903E0,1.1874838E3,1.2088339E2,2.723028E2,2.3416977E2,2.448532E3,1.7630209E4,5.874443E2,2.0061754E2,2.6099094E2,1.24565926E2,5.13523E2,5.4495255E1,2.437652E3,8.377812E1,5.162416E2,9.5721515E2,8.9691705E2,4.122673E2,1.1283536E2,4.9114434E3,5.8462494E2,3.8502014E2],"tree_param":{"num_deleted":"0","num_feature":"30","num_nodes":"83","size_leaf_vector":"1"}},{"base_weights":[-8.436285E-4,1.0836583E0,-8.178919E-1,1.1614574E0,3.827011E-1,-1.0570086E0,-3.454963E-1,-1.1109432E-1,1.1629834E0,-1.845016E-1,9.876149E-1,-1.1144257E0,-4.0990564E-1,3.348303E-1,-7.4039096E-1,1.163773E0,-1.0557701E-1,-9.2479247E-1,7.0303994E-1,-1.1824286E-1,1.0494963E0,-5.76091E-1,-1.1617575E0,4.3025258E-1,-1.2071663E-1,4.892545E-1,-1.1830201E-1,1.064003E-1,-1.0047969E0,1.1675414E0,8.323963E-1,9.014033E-1,-1.17004804E-1,9.056853E-1,-1.207807E-1,-1.5353122E-1,1.0816624E0,-9.7859913E-1,4.3048346E-1,-1.1865934E0,-5.467494E-1,-5.4999673E-1,1.0825361E0,8.502856E-1,-1.1737482E-1,1.2257324E0,-4.5442912E-1,-1.2047321E0,-9.911198E-3,1.17001735E-1,1.08613126E-1,-2.2180596E-1,1.1570642E-1,-1.1046735E-1,1.1612363E-1,-1.6503097E-1,1.00465596E-1,-1.844564E-1,1.1072598E-1,-1.1929067E-1,1.0541914E-1,1.7383231E-1,-1.1913633E-1,-1.2314395E-1,-1.1802616E-1,-1.1965918E-1,1.2707607E-1,-1.22250155E-1,7.9754405E-2,1.3218111E-1,-1.2289565E-1,-4.9117602E-2,9.950296E-2,4.0560767E-2,-1.3617584E-1,1.829878E-1,-1.2404783E-1,-1.2854216E-1,3.90142E-2,-1.4185034E-1,-1.19945385E-1,-1.2198275E-1,7.956207E-2],"categories":[],"categories_nodes":[],"categories_segments":[],"categories_sizes":[],"default_left":[0,0,0,0,0,0,0,0,0,0,0,0,0,0,0,0,0,0,0,0,0,0,0,0,0,0,0,0,0,0,0,0,0,0,0,0,0,0,0,0,0,0,0,0,0,0,0,0,0,0,0,0,0,0,0,0,0,0,0,0,0,0,0,0,0,0,0,0,0,0,0,0,0,0,0,0,0,0,0,0,0,0,0],"id":12,"left_children":[1,3,5,7,9,11,13,-1,15,17,19,21,23,25,27,29,-1,31,33,-1,35,37,39,41,-1,43,-1,45,47,49,51,53,-1,55,-1,-1,57,59,61,63,65,67,69,71,73,75,77,79,81,-1,-1,-1,-1,-1,-1,-1,-1,-1,-1,-1,-1,-1,-1,-1,-1,-1,-1,-1,-1,-1,-1,-1,-1,-1,-1,-1,-1,-1,-1,-1,-1,-1,-1],"loss_changes":[5.339718E4,1.4115898E3,3.881838E3,8.211328E1,8.8822754E2,8.4733984E2,3.103699E3,0E0,4.2027344E1,8.7884534E2,1.6945154E2,5.3334375E2,1.2472002E3,9.9516943E2,1.6366658E3,2.8103516E1,0E0,3.276443E2,2.366861E2,0E0,1.029657E2,6.874525E2,2.9358008E2,5.805053E2,0E0,8.437631E2,0E0,1.0929523E3,1.1079883E3,3.3691406E0,2.65294E2,4.657821E1,0E0,1.4095477E2,0E0,0E0,9.2230225E1,5.291007E2,1.0309889E3,3.8027344E0,8.8682556E2,3.2997308E2,3.030086E2,4.6941284E2,9.364528E2,8.681218E2,8.1465155E2,3.5317383E0,9.1040466E2,0E0,0E0,0E0,0E0,0E0,0E0,0E0,0E0,0E0,0E0,0E0,0E0,0E0,0E0,0E0,0E0,0E0,0E0,0E0,0E0,0E0,0E0,0E0,0E0,0E0,0E0,0E0,0E0,0E0,0E0,0E0,0E0,0E0,0E0],"parents":[2147483647,0,0,1,1,2,2,3,3,4,4,5,5,6,6,8,8,9,9,10,10,11,11,12,12,13,13,14,14,15,15,17,17,18,18,20,20,21,21,22,22,23,23,25,25,27,27,28,28,29,29,30,30,31,31,33,33,36,36,37,37,38,38,39,39,40,40,41,41,42,42,43,43,44,44,45,45,46,46,47,47,48,48],"right_children":[2,4,6,8,10,12,14,-1,16,18,20,22,24,26,28,30,-1,32,34,-1,36,38,40,42,-1,44,-1,46,48,50,52,54,-1,56,-1,-1,58,60,62,64,66,68,70,72,74,76,78,80,82,-1,-1,-1,-1,-1,-1,-1,-1,-1,-1,-1,-1,-1,-1,-1,-1,-1,-1,-1,-1,-1,-1,-1,-1,-1,-1,-1,-1,-1,-1,-1,-1,-1,-1],"split_conditions":[-1.8863105E0,-1.4392083E0,5.266215E-1,-4.4827467E-1,1.3424487E0,8.7742096E-1,-5.644803E-1,-1.1109432E-1,1.0302951E0,7.375366E-2,5.0694376E-2,-9.969373E-1,-6.8497366E-1,8.4498763E-1,-3.4370407E-1,-2.7826564E0,-1.0557701E-1,-2.090823E0,-9.0700024E-1,-1.1824286E-1,-1.2065758E0,2.2214465E-1,1.7454641E0,3.2733575E-2,-1.2071663E-1,3.5951307E-1,-1.1830201E-1,6.4672005E-1,9.958981E-1,2.600733E0,5.751653E-1,9.013887E-1,-1.17004804E-1,-2.5240788E0,-1.207807E-1,-1.5353122E-1,8.1017387E-1,1.8324754E0,2.4346055E-1,-8.489499E-1,1.4527825E0,-2.5886811E-2,5.4362487E-2,-1.1132162E0,-6.1170496E-2,-8.7383324E-1,1.7307576E0,-4.927846E-1,6.571313E-1,1.17001735E-1,1.08613126E-1,-2.2180596E-1,1.1570642E-1,-1.1046735E-1,1.1612363E-1,-1.6503097E-1,1.00465596E-1,-1.844564E-1,1.1072598E-1,-1.1929067E-1,1.0541914E-1,1.7383231E-1,-1.1913633E-1,-1.2314395E-1,-1.1802616E-1,-1.1965918E-1,1.2707607E-1,-1.22250155E-1,7.9754405E-2,1.3218111E-1,-1.2289565E-1,-4.9117602E-2,9.950296E-2,4.0560767E-2,-1.3617584E-1,1.829878E-1,-1.2404783E-1,-1.2854216E-1,3.90142E-2,-1.4185034E-1,-1.19945385E-1,-1.2198275E-1,7.956207E-2],"split_indices":[14,12,4,4,4,29,12,0,10,29,28,6,26,3,29,14,0,10,10,0,22,4,16,4,0,14,0,4,18,17,6,4,0,14,0,0,16,21,4,14,19,2,6,11,18,0,4,12,17,0,0,0,0,0,0,0,0,0,0,0,0,0,0,0,0,0,0,0,0,0,0,0,0,0,0,0,0,0,0,0,0,0,0],"split_type":[0,0,0,0,0,0,0,0,0,0,0,0,0,0,0,0,0,0,0,0,0,0,0,0,0,0,0,0,0,0,0,0,0,0,0,0,0,0,0,0,0,0,0,0,0,0,0,0,0,0,0,0,0,0,0,0,0,0,0,0,0,0,0,0,0,0,0,0,0,0,0,0,0,0,0,0,0,0,0,0,0,0,0],"sum_hessian":[6.0259547E4,2.589187E4,3.4367676E4,2.3304637E4,2.587233E3,2.2816969E4,1.1550707E4,1.5152336E1,2.3289484E4,1.3355955E3,1.2516376E3,2.0956766E4,1.8602035E3,4.242264E3,7.308443E3,2.3281676E4,7.8089356E0,7.2818256E2,6.0741284E2,3.4200264E1,1.2174374E3,1.694727E3,1.9262037E4,9.059588E2,9.542447E2,3.8511326E3,3.9113168E2,1.7391633E3,5.56928E3,2.3017396E4,2.642782E2,8.589853E1,6.42284E2,5.496486E2,5.776422E1,1.4389561E1,1.2030477E3,1.2106437E3,4.8408337E2,1.8513475E4,7.485629E2,3.620413E2,5.439175E2,2.4140352E3,1.4370973E3,5.801282E2,1.1590352E3,4.637169E3,9.321107E2,2.2325041E4,6.9235565E2,2.4861082E1,2.394171E2,9.477179E0,7.642135E1,1.990525E1,5.297434E2,9.81628E0,1.1932314E3,1.0955574E3,1.1508628E2,2.6794424E2,2.1613914E2,2.266601E3,1.6246874E4,5.516608E2,1.9690211E2,2.4157397E2,1.20467316E2,4.9328326E2,5.063422E1,2.3487378E2,2.1791614E3,1.01231946E3,4.2477786E2,4.6618524E2,1.13942955E2,5.8395087E2,5.750842E2,1.05287735E2,4.5318813E3,3.7233932E2,5.5977136E2],"tree_param":{"num_deleted":"0","num_feature":"30","num_nodes":"83","size_leaf_vector":"1"}},{"base_weights":[-1.0914982E-3,1.0645531E0,-7.94928E-1,1.1419743E0,3.7263155E-1,-1.0354874E0,-3.3117005E-1,1.1434832E0,-1.0894904E-1,-1.8044819E-1,9.6279114E-1,-1.0928847E0,-3.9732715E-1,3.140647E-1,-7.1481544E-1,-1.0463291E-1,1.1443795E0,-9.0944046E-1,6.7746544E-1,-1.1568975E-1,1.0231557E0,-5.600101E-1,-1.1402607E0,4.0857124E-1,-1.18377924E-1,4.5740792E-1,-1.1623663E-1,9.65113E-2,-9.798759E-1,1.1446898E0,-2.4100426E-1,8.835915E-1,-1.1509422E-1,-1.3887585E0,8.5840887E-1,1.0578272E0,-1.4831598E-1,4.2188993E-1,-9.552387E-1,-1.1658769E0,-5.2376384E-1,-1.1991795E-1,7.7214503E-1,8.0025786E-1,-1.0989403E-1,-1.2166297E-1,5.3288954E-1,-1.1825668E0,-1.0909992E-2,1.1483558E-1,8.241446E-2,-1.0761702E-1,1.1408682E-1,-1.8491803E-1,-1.1601885E-1,9.761589E-2,-1.4513958E-1,-1.483339E-1,1.0866411E-1,-1.2009907E-1,1.4117748E-1,-1.1669015E-1,1.0074101E-1,-1.205461E-1,-1.1602519E-1,-1.1795657E-1,1.1113439E-1,1.0294495E-1,-1.24108076E-1,8.78497E-2,-1.760988E-1,9.6379176E-2,-6.7808345E-2,1.0606519E-1,-6.4778544E-2,-1.377629E-1,-1.1776575E-1,7.21354E-2,-1.21223845E-1],"categories":[],"categories_nodes":[],"categories_segments":[],"categories_sizes":[],"default_left":[0,0,0,0,0,0,0,0,0,0,0,0,0,0,0,0,0,0,0,0,0,0,0,0,0,0,0,0,0,0,0,0,0,0,0,0,0,0,0,0,0,0,0,0,0,0,0,0,0,0,0,0,0,0,0,0,0,0,0,0,0,0,0,0,0,0,0,0,0,0,0,0,0,0,0,0,0,0,0],"id":13,"left_children":[1,3,5,7,9,11,13,15,-1,17,19,21,23,25,27,-1,29,31,33,-1,35,37,39,41,-1,43,-1,45,47,49,-1,51,-1,53,55,57,-1,59,61,63,65,-1,67,69,71,-1,73,75,77,-1,-1,-1,-1,-1,-1,-1,-1,-1,-1,-1,-1,-1,-1,-1,-1,-1,-1,-1,-1,-1,-1,-1,-1,-1,-1,-1,-1,-1,-1],"loss_changes":[4.7215645E4,1.2760098E3,3.568084E3,7.339453E1,7.833285E2,7.709961E2,2.70495E3,4.3226562E1,0E0,7.757636E2,1.4972717E2,4.8716406E2,1.1029851E3,8.629241E2,1.4737253E3,0E0,2.6378906E1,2.9134924E2,2.1427411E2,0E0,9.970276E1,6.134009E2,2.7960352E2,5.035545E2,0E0,7.226508E2,0E0,9.681081E2,1.0144238E3,2.4208984E1,0E0,4.164086E1,0E0,2.7243805E0,1.4411432E2,8.3214355E1,0E0,7.3107324E2,4.6917053E2,2.3945312E0,7.623031E2,0E0,3.648683E2,4.655874E2,8.549145E2,0E0,7.9074365E2,2.4682617E0,7.87804E2,0E0,0E0,0E0,0E0,0E0,0E0,0E0,0E0,0E0,0E0,0E0,0E0,0E0,0E0,0E0,0E0,0E0,0E0,0E0,0E0,0E0,0E0,0E0,0E0,0E0,0E0,0E0,0E0,0E0,0E0],"parents":[2147483647,0,0,1,1,2,2,3,3,4,4,5,5,6,6,7,7,9,9,10,10,11,11,12,12,13,13,14,14,16,16,17,17,18,18,20,20,21,21,22,22,23,23,25,25,27,27,28,28,29,29,31,31,33,33,34,34,35,35,37,37,38,38,39,39,40,40,42,42,43,43,44,44,46,46,47,47,48,48],"right_children":[2,4,6,8,10,12,14,16,-1,18,20,22,24,26,28,-1,30,32,34,-1,36,38,40,42,-1,44,-1,46,48,50,-1,52,-1,54,56,58,-1,60,62,64,66,-1,68,70,72,-1,74,76,78,-1,-1,-1,-1,-1,-1,-1,-1,-1,-1,-1,-1,-1,-1,-1,-1,-1,-1,-1,-1,-1,-1,-1,-1,-1,-1,-1,-1,-1,-1],"split_conditions":[-1.8863105E0,-1.4392083E0,5.266215E-1,1.0302951E0,1.3424487E0,8.7742096E-1,-5.644803E-1,-6.7954695E-1,-1.0894904E-1,7.375366E-2,5.0694376E-2,-9.969373E-1,-6.8497366E-1,8.4498763E-1,-3.4370407E-1,-1.0463291E-1,1.7831217E0,-2.090823E0,-5.123984E-1,-1.1568975E-1,9.4936824E-1,-6.8220496E-1,1.7454641E0,5.6459147E-1,-1.18377924E-1,3.5951307E-1,-1.1623663E-1,6.714792E-2,9.958981E-1,-2.7826564E0,-2.4100426E-1,9.013887E-1,-1.1509422E-1,-9.541203E-1,-1.7509802E-1,-1.2065758E0,-1.4831598E-1,8.6193496E-1,1.8324754E0,-8.489499E-1,-4.1970253E-1,-1.1991795E-1,5.574152E-1,8.2205456E-1,-6.040556E-1,-1.2166297E-1,4.6069732E-1,-4.927846E-1,4.7720415E-3,1.1483558E-1,8.241446E-2,-1.0761702E-1,1.1408682E-1,-1.8491803E-1,-1.1601885E-1,9.761589E-2,-1.4513958E-1,-1.483339E-1,1.0866411E-1,-1.2009907E-1,1.4117748E-1,-1.1669015E-1,1.0074101E-1,-1.205461E-1,-1.1602519E-1,-1.1795657E-1,1.1113439E-1,1.0294495E-1,-1.24108076E-1,8.78497E-2,-1.760988E-1,9.6379176E-2,-6.7808345E-2,1.0606519E-1,-6.4778544E-2,-1.377629E-1,-1.1776575E-1,7.21354E-2,-1.21223845E-1],"split_indices":[14,12,4,10,4,29,12,11,0,29,28,6,26,3,29,0,7,10,1,0,7,14,16,7,0,14,0,16,18,14,0,4,0,10,8,22,0,25,21,14,4,0,6,9,7,0,16,12,8,0,0,0,0,0,0,0,0,0,0,0,0,0,0,0,0,0,0,0,0,0,0,0,0,0,0,0,0,0,0],"split_type":[0,0,0,0,0,0,0,0,0,0,0,0,0,0,0,0,0,0,0,0,0,0,0,0,0,0,0,0,0,0,0,0,0,0,0,0,0,0,0,0,0,0,0,0,0,0,0,0,0,0,0,0,0,0,0,0,0,0,0,0,0,0,0,0,0,0,0,0,0,0,0,0,0,0,0,0,0,0,0],"sum_hessian":[5.5811906E4,2.3826678E4,3.1985229E4,2.1428346E4,2.398332E3,2.105987E4,1.0925358E4,2.1414354E4,1.3992292E1,1.2384182E3,1.1599138E3,1.9321361E4,1.7385089E3,4.0738784E3,6.85148E3,8.283861E0,2.140607E4,6.694816E2,5.689366E2,3.161442E1,1.1282994E3,1.578586E3,1.7742775E4,8.588761E2,8.796328E2,3.7139866E3,3.59892E2,1.6873346E3,5.1641455E3,2.1404879E4,1.1911155E0,7.915274E1,5.9032886E2,4.5273666E1,5.236629E2,1.1134739E3,1.4825523E1,4.530265E2,1.1255594E3,1.7034098E4,7.0867786E2,1.5797968E2,7.008964E2,2.3146895E3,1.3992971E3,4.204217E2,1.2669128E3,4.270592E3,8.9355383E2,2.116029E4,2.4458917E2,8.815933E0,7.033681E1,1.2667204E1,3.2606464E1,4.988117E2,2.4851196E1,1.191793E1,1.1015559E3,1.71555E2,2.814715E2,1.0163556E3,1.0920389E2,2.0928403E3,1.4941257E4,5.060087E2,2.0266914E2,6.219017E2,7.899475E1,2.2467153E3,6.797412E1,4.8400162E2,9.1529553E2,8.756144E2,3.9129846E2,9.797692E1,4.1726147E3,5.554074E2,3.3814636E2],"tree_param":{"num_deleted":"0","num_feature":"30","num_nodes":"79","size_leaf_vector":"1"}},{"base_weights":[-1.3086477E-3,1.0472976E0,-7.7297336E-1,1.1290183E0,3.9629155E-1,-1.0156201E0,-3.17122E-1,-1.7264813E-1,1.1297613E0,-2.045986E-1,9.459554E-1,-1.0734756E0,-3.841201E-1,2.946538E-1,-6.9014E-1,1.1304407E0,-9.8106466E-2,-9.2079186E-1,6.377103E-1,1.0019279E0,-1.4227619E0,-5.438702E-1,-1.1212282E0,3.8431835E-1,-1.1633483E-1,4.2761132E-1,-1.1442249E-1,8.843648E-2,-9.565097E-1,1.1328241E0,9.194908E-1,8.6530507E-1,-1.1553217E0,8.248009E-1,-1.3110338E-1,1.0327672E0,-2.163037E0,-2.2781863E0,-1.2686293E-1,-9.423891E-1,4.0204817E-1,-1.1477541E0,-5.018166E-1,-5.4052496E-1,9.8402005E-1,8.217503E-1,-1.6693195E-2,-1.19337775E-1,4.8651898E-1,-1.163129E0,-1.1809436E-2,1.1340759E-1,1.0692789E-1,1.1318036E-1,-2.2453645E-1,-1.0503832E-1,1.1227792E-1,-1.7536864E-1,-1.134176E-1,9.3456656E-2,-1.7339404E-1,-1.2966157E-1,1.0605327E-1,-1.0126E-1,-2.5158197E-1,-2.660742E-1,-7.2035626E-2,-1.154727E-1,9.502835E-2,1.5299317E-1,-1.15199886E-1,-1.1827918E-1,-1.1427428E-1,-1.1617588E-1,1.0888072E-1,-1.200853E-1,7.325867E-2,1.2009193E-1,-1.1868423E-1,-3.0028766E-1,8.781038E-2,1.07411645E-1,-5.0895065E-2,1.3941799E-1,-1.0887267E-2,-1.3411938E-1,-1.1585565E-1,-1.19011275E-1,7.137877E-2],"categories":[],"categories_nodes":[],"categories_segments":[],"categories_sizes":[],"default_left":[0,0,0,0,0,0,0,0,0,0,0,0,0,0,0,0,0,0,0,0,0,0,0,0,0,0,0,0,0,0,0,0,0,0,0,0,0,0,0,0,0,0,0,0,0,0,0,0,0,0,0,0,0,0,0,0,0,0,0,0,0,0,0,0,0,0,0,0,0,0,0,0,0,0,0,0,0,0,0,0,0,0,0,0,0,0,0,0,0],"id":14,"left_children":[1,3,5,7,9,11,13,-1,15,17,19,21,23,25,27,29,-1,31,33,35,37,39,41,43,-1,45,-1,47,49,51,53,55,57,59,-1,61,63,65,-1,67,69,71,73,75,77,79,81,-1,83,85,87,-1,-1,-1,-1,-1,-1,-1,-1,-1,-1,-1,-1,-1,-1,-1,-1,-1,-1,-1,-1,-1,-1,-1,-1,-1,-1,-1,-1,-1,-1,-1,-1,-1,-1,-1,-1,-1,-1],"loss_changes":[4.1795277E4,1.1644727E3,3.2909238E3,4.3226562E1,8.0730774E2,7.090488E2,2.35935E3,0E0,2.9E1,7.053456E2,1.70656E2,4.4925E2,9.772362E2,7.4974866E2,1.3320295E3,8.734375E0,0E0,2.65659E2,1.970317E2,1.2400012E2,1.0492554E0,5.557119E2,2.675E2,4.5647955E2,0E0,6.279712E2,0E0,8.364376E2,9.340581E2,3.1445312E-1,1.5207256E2,3.7631836E1,5.0827637E0,1.395199E2,0E0,8.1326416E1,2.4695663E0,5.2970886E-2,0E0,4.177674E2,7.683898E2,1.3945312E0,7.0646545E2,2.732745E2,2.3640942E2,4.1220093E2,9.062154E2,0E0,6.7600037E2,1.6430664E0,7.3596136E2,0E0,0E0,0E0,0E0,0E0,0E0,0E0,0E0,0E0,0E0,0E0,0E0,0E0,0E0,0E0,0E0,0E0,0E0,0E0,0E0,0E0,0E0,0E0,0E0,0E0,0E0,0E0,0E0,0E0,0E0,0E0,0E0,0E0,0E0,0E0,0E0,0E0,0E0],"parents":[2147483647,0,0,1,1,2,2,3,3,4,4,5,5,6,6,8,8,9,9,10,10,11,11,12,12,13,13,14,14,15,15,17,17,18,18,19,19,20,20,21,21,22,22,23,23,25,25,27,27,28,28,29,29,30,30,31,31,32,32,33,33,35,35,36,36,37,37,39,39,40,40,41,41,42,42,43,43,44,44,45,45,46,46,48,48,49,49,50,50],"right_children":[2,4,6,8,10,12,14,-1,16,18,20,22,24,26,28,30,-1,32,34,36,38,40,42,44,-1,46,-1,48,50,52,54,56,58,60,-1,62,64,66,-1,68,70,72,74,76,78,80,82,-1,84,86,88,-1,-1,-1,-1,-1,-1,-1,-1,-1,-1,-1,-1,-1,-1,-1,-1,-1,-1,-1,-1,-1,-1,-1,-1,-1,-1,-1,-1,-1,-1,-1,-1,-1,-1,-1,-1,-1,-1],"split_conditions":[-1.8863105E0,-1.8841089E0,5.266215E-1,4.6098724E-2,1.3424487E0,8.7742096E-1,-5.644803E-1,-1.7264813E-1,1.0302951E0,7.375366E-2,-1.6471942E-1,-9.969373E-1,-6.8497366E-1,8.4498763E-1,-3.4370407E-1,-2.7826564E0,-9.8106466E-2,-2.090823E0,1.6084255E-1,1.2882785E0,-1.4392083E0,2.2214465E-1,1.7454641E0,3.2733575E-2,-1.1633483E-1,1.4989412E-1,-1.1442249E-1,6.714792E-2,9.958981E-1,2.600733E0,-8.2623875E-1,9.013887E-1,-1.4392083E0,4.9751945E-2,-1.3110338E-1,6.608792E-1,-1.2925769E0,7.137117E-1,-1.2686293E-1,1.8324754E0,2.4346055E-1,-8.489499E-1,1.4527825E0,2.4724984E0,5.4362487E-2,-1.1178308E0,-8.53735E-1,-1.19337775E-1,6.4672005E-1,-4.927846E-1,6.571313E-1,1.1340759E-1,1.0692789E-1,1.1318036E-1,-2.2453645E-1,-1.0503832E-1,1.1227792E-1,-1.7536864E-1,-1.134176E-1,9.3456656E-2,-1.7339404E-1,-1.2966157E-1,1.0605327E-1,-1.0126E-1,-2.5158197E-1,-2.660742E-1,-7.2035626E-2,-1.154727E-1,9.502835E-2,1.5299317E-1,-1.15199886E-1,-1.1827918E-1,-1.1427428E-1,-1.1617588E-1,1.0888072E-1,-1.200853E-1,7.325867E-2,1.2009193E-1,-1.1868423E-1,-3.0028766E-1,8.781038E-2,1.07411645E-1,-5.0895065E-2,1.3941799E-1,-1.0887267E-2,-1.3411938E-1,-1.1585565E-1,-1.19011275E-1,7.137877E-2],"split_indices":[14,12,4,11,4,29,12,0,10,29,19,6,26,3,29,14,0,10,11,0,12,4,16,4,0,14,0,16,18,17,1,4,12,27,0,18,22,10,0,21,4,14,19,7,6,28,8,0,4,12,17,0,0,0,0,0,0,0,0,0,0,0,0,0,0,0,0,0,0,0,0,0,0,0,0,0,0,0,0,0,0,0,0,0,0,0,0,0,0],"split_type":[0,0,0,0,0,0,0,0,0,0,0,0,0,0,0,0,0,0,0,0,0,0,0,0,0,0,0,0,0,0,0,0,0,0,0,0,0,0,0,0,0,0,0,0,0,0,0,0,0,0,0,0,0,0,0,0,0,0,0,0,0,0,0,0,0,0,0,0,0,0,0,0,0,0,0,0,0,0,0,0,0,0,0,0,0,0,0,0,0],"sum_hessian":[5.1649883E4,2.1895703E4,2.9754178E4,1.9453033E4,2.442671E3,1.9417264E4,1.0336913E4,4.4565544E0,1.9448576E4,1.1672577E3,1.2754133E3,1.7786988E4,1.6302744E3,3.9154724E3,6.421441E3,1.9442783E4,5.793032E0,6.3080634E2,5.3645135E2,1.2465349E3,2.8878416E1,1.4721635E3,1.6314825E4,8.210752E2,8.091992E2,3.5849163E3,3.305562E2,1.637075E3,4.7843657E3,1.9221246E4,2.2153685E2,7.2904175E1,5.5790216E2,4.8998657E2,4.6464783E1,1.2351731E3,1.1361804E1,2.3050203E0,2.6573395E1,1.0357865E3,4.3637692E2,1.5644026E4,6.7079895E2,3.2302054E2,4.9805466E2,1.8992539E3,1.6856624E3,3.874617E2,1.2496133E3,3.9255593E3,8.5880664E2,1.8833408E4,3.8783887E2,2.0821147E2,1.3325382E1,8.272746E0,6.463143E1,1.6246244E1,5.416559E2,4.7044025E2,1.9546328E1,1.4011169E1,1.221162E3,3.5747452E0,7.787059E0,1.2821767E0,1.0228435E0,9.316546E2,1.0413191E2,2.5286798E2,1.8350894E2,1.9281204E3,1.3715906E4,4.742885E2,1.965104E2,2.1273665E2,1.102839E2,4.5321863E2,4.483603E1,2.681877E1,1.872435E3,5.2379205E2,1.1618704E3,4.944674E2,7.551459E2,9.0963165E1,3.8345962E3,3.2705655E2,5.3175006E2],"tree_param":{"num_deleted":"0","num_feature":"30","num_nodes":"89","size_leaf_vector":"1"}},{"base_weights":[-1.5014476E-3,1.0319748E0,-7.5184685E-1,1.1139311E0,3.8593602E-1,-9.983851E-1,-3.027747E-1,-1.6654095E-1,1.1146805E0,-2.0038576E-1,9.2326003E-1,-1.0564715E0,-3.7339765E-1,2.757026E-1,-6.6498667E-1,1.1153605E0,-9.58317E-2,-9.08488E-1,6.1255807E-1,9.784975E-1,-1.3872168E0,-5.3064317E-1,-1.1043987E0,5.559243E-1,-9.9305516E-1,4.5128572E-1,-7.697721E-1,8.000267E-2,-9.35193E-1,1.1178348E0,8.9835006E-1,8.5070115E-1,-1.1401428E0,8.0765134E-1,-1.1735021E-1,1.009301E0,-2.036147E0,-1.8796957E0,-1.1962169E-1,-9.2533326E-1,3.8248733E-1,-1.1318394E0,-4.8205957E-1,-1.2141035E-1,9.1320723E-1,-1.1549252E-1,8.2525235E-1,8.692047E-1,3.149455E-2,6.5303534E-1,-1.4682751E0,-1.439393E-1,2.116738E0,-1.1460109E0,-1.2656902E-2,1.1191934E-1,1.0492797E-1,1.1132049E-1,-1.9987161E-1,-1.0260965E-1,1.1066073E-1,-1.7108247E-1,-1.119403E-1,9.111644E-2,-1.8719886E-1,-1.1892231E-1,1.0406645E-1,-9.827664E-2,-2.3313153E-1,-5.9183527E-2,-2.0454958E-1,9.024235E-2,-1.1425133E-1,1.4308377E-1,-1.1347746E-1,-1.16292074E-1,-1.1273638E-1,-1.1496144E-1,9.628261E-2,1.10853374E-1,-1.255015E-1,-1.0727342E-1,1.09822705E-1,-1.3750544E-1,9.5246635E-2,-1.2860714E-1,4.517032E-2,-1.5992461E-1,1.1360977E-1,-1.9585478E-1,-1.3120823E-1,4.2810973E-2,-1.24002755E-1,2.3759687E-1,-1.1189771E-1,-1.3084546E-1,-1.1417486E-1,6.469583E-2,-1.186971E-1],"categories":[],"categories_nodes":[],"categories_segments":[],"categories_sizes":[],"default_left":[0,0,0,0,0,0,0,0,0,0,0,0,0,0,0,0,0,0,0,0,0,0,0,0,0,0,0,0,0,0,0,0,0,0,0,0,0,0,0,0,0,0,0,0,0,0,0,0,0,0,0,0,0,0,0,0,0,0,0,0,0,0,0,0,0,0,0,0,0,0,0,0,0,0,0,0,0,0,0,0,0,0,0,0,0,0,0,0,0,0,0,0,0,0,0,0,0,0,0],"id":15,"left_children":[1,3,5,7,9,11,13,-1,15,17,19,21,23,25,27,29,-1,31,33,35,37,39,41,43,45,47,49,51,53,55,57,59,61,63,-1,65,67,69,-1,71,73,75,77,-1,79,-1,81,83,85,87,89,91,93,95,97,-1,-1,-1,-1,-1,-1,-1,-1,-1,-1,-1,-1,-1,-1,-1,-1,-1,-1,-1,-1,-1,-1,-1,-1,-1,-1,-1,-1,-1,-1,-1,-1,-1,-1,-1,-1,-1,-1,-1,-1,-1,-1,-1,-1],"loss_changes":[3.7039242E4,1.0633477E3,3.0634219E3,3.8996094E1,7.1325146E2,6.4814453E2,2.0555073E3,0E0,2.6191406E1,6.240768E2,1.5211023E2,4.1132422E2,8.7625336E2,6.9381366E2,1.2144087E3,8.566406E0,0E0,2.3705481E2,1.7686166E2,1.0923779E2,3.8469315E-1,4.9311234E2,2.5524805E2,3.862268E2,2.6958844E2,5.675386E2,5.4119714E2,7.330572E2,8.609612E2,4.6679688E-1,1.3043611E2,3.378604E1,4.1486816E0,1.2811423E2,0E0,8.0066284E1,1.4417839E0,8.6120605E-2,0E0,3.8008514E2,6.5907574E2,6.855469E-1,6.1290955E2,0E0,2.1622607E2,0E0,4.0135406E1,3.0423682E2,8.947213E2,1.973125E2,2.5373596E1,9.086501E2,1.3619958E2,1.0009766E0,6.393992E2,0E0,0E0,0E0,0E0,0E0,0E0,0E0,0E0,0E0,0E0,0E0,0E0,0E0,0E0,0E0,0E0,0E0,0E0,0E0,0E0,0E0,0E0,0E0,0E0,0E0,0E0,0E0,0E0,0E0,0E0,0E0,0E0,0E0,0E0,0E0,0E0,0E0,0E0,0E0,0E0,0E0,0E0,0E0,0E0],"parents":[2147483647,0,0,1,1,2,2,3,3,4,4,5,5,6,6,8,8,9,9,10,10,11,11,12,12,13,13,14,14,15,15,17,17,18,18,19,19,20,20,21,21,22,22,23,23,24,24,25,25,26,26,27,27,28,28,29,29,30,30,31,31,32,32,33,33,35,35,36,36,37,37,39,39,40,40,41,41,42,42,44,44,46,46,47,47,48,48,49,49,50,50,51,51,52,52,53,53,54,54],"right_children":[2,4,6,8,10,12,14,-1,16,18,20,22,24,26,28,30,-1,32,34,36,38,40,42,44,46,48,50,52,54,56,58,60,62,64,-1,66,68,70,-1,72,74,76,78,-1,80,-1,82,84,86,88,90,92,94,96,98,-1,-1,-1,-1,-1,-1,-1,-1,-1,-1,-1,-1,-1,-1,-1,-1,-1,-1,-1,-1,-1,-1,-1,-1,-1,-1,-1,-1,-1,-1,-1,-1,-1,-1,-1,-1,-1,-1,-1,-1,-1,-1,-1,-1],"split_conditions":[-1.8863105E0,-1.8841089E0,5.266215E-1,4.6098724E-2,1.3424487E0,8.7742096E-1,-5.644803E-1,-1.6654095E-1,1.0302951E0,7.375366E-2,-1.6471942E-1,-9.969373E-1,-1.0254476E0,6.3527364E-1,-3.4370407E-1,-2.7826564E0,-9.58317E-2,-2.090823E0,-9.0700024E-1,1.2882785E0,-1.0611452E-1,2.2214465E-1,1.7454641E0,-1.4676726E-1,2.4651923E0,1.4989412E-1,-1.8719296E0,1.5701697E0,9.958981E-1,2.600733E0,-8.2623875E-1,9.013887E-1,-1.4392083E0,5.921951E-1,-1.1735021E-1,5.0694376E-2,-1.2925769E0,-1.14811085E-1,-1.1962169E-1,-2.129912E0,2.4346055E-1,-8.489499E-1,-4.1970253E-1,-1.2141035E-1,1.8918961E-1,-1.1549252E-1,2.5048843E-1,-1.508409E0,-5.064851E-1,2.600733E0,-5.0127494E-1,-3.902223E-1,1.6096909E0,-4.927846E-1,4.7720415E-3,1.1191934E-1,1.0492797E-1,1.1132049E-1,-1.9987161E-1,-1.0260965E-1,1.1066073E-1,-1.7108247E-1,-1.119403E-1,9.111644E-2,-1.8719886E-1,-1.1892231E-1,1.0406645E-1,-9.827664E-2,-2.3313153E-1,-5.9183527E-2,-2.0454958E-1,9.024235E-2,-1.1425133E-1,1.4308377E-1,-1.1347746E-1,-1.16292074E-1,-1.1273638E-1,-1.1496144E-1,9.628261E-2,1.10853374E-1,-1.255015E-1,-1.0727342E-1,1.09822705E-1,-1.3750544E-1,9.5246635E-2,-1.2860714E-1,4.517032E-2,-1.5992461E-1,1.1360977E-1,-1.9585478E-1,-1.3120823E-1,4.2810973E-2,-1.24002755E-1,2.3759687E-1,-1.1189771E-1,-1.3084546E-1,-1.1417486E-1,6.469583E-2,-1.186971E-1],"split_indices":[14,12,4,11,4,29,12,0,10,29,19,6,26,18,29,14,0,10,10,0,10,4,16,25,22,14,19,13,18,17,1,4,12,5,0,28,22,28,0,13,4,14,4,0,24,0,4,11,0,17,14,9,13,12,8,0,0,0,0,0,0,0,0,0,0,0,0,0,0,0,0,0,0,0,0,0,0,0,0,0,0,0,0,0,0,0,0,0,0,0,0,0,0,0,0,0,0,0,0],"split_type":[0,0,0,0,0,0,0,0,0,0,0,0,0,0,0,0,0,0,0,0,0,0,0,0,0,0,0,0,0,0,0,0,0,0,0,0,0,0,0,0,0,0,0,0,0,0,0,0,0,0,0,0,0,0,0,0,0,0,0,0,0,0,0,0,0,0,0,0,0,0,0,0,0,0,0,0,0,0,0,0,0,0,0,0,0,0,0,0,0,0,0,0,0,0,0,0,0,0,0],"sum_hessian":[4.776197E4,2.00904E4,2.7671566E4,1.782802E4,2.262381E3,1.7863422E4,9.8081455E3,4.2076387E0,1.7823812E4,1.0821637E3,1.1802175E3,1.634374E4,1.5196808E3,3.7767136E3,6.0314316E3,1.781843E4,5.3824015E0,5.7831433E2,5.0384937E2,1.1532234E3,2.6994068E1,1.3662408E3,1.49775E4,6.0797797E2,9.117029E2,3.2341243E3,5.4258936E2,1.605524E3,4.425907E3,1.7613451E4,2.0497868E2,6.698178E1,5.1133258E2,4.5472687E2,4.91225E1,1.1422175E3,1.1005891E1,5.0728283E0,2.192124E1,9.539107E2,4.123302E2,1.4344205E4,6.332946E2,1.01707436E2,5.0627054E2,8.3751056E2,7.419232E1,1.6201396E3,1.6139847E3,1.7868472E2,3.6390463E2,1.4473186E3,1.5820543E2,3.6024365E3,8.234708E2,1.7256154E4,3.5729706E2,1.9139967E2,1.3579003E1,7.676104E0,5.930568E1,1.5073584E1,4.96259E2,4.3844974E2,1.6277119E1,1.5546093E1,1.1266714E3,3.356588E0,7.649303E0,1.0997828E0,3.9730456E0,1.0097385E2,8.529368E2,2.4387915E2,1.6845105E2,1.7729279E3,1.2571277E4,4.333062E2,1.9998839E2,4.6488007E2,4.1390472E1,8.960483E0,6.523184E1,5.7401695E1,1.5627379E3,3.8977695E2,1.2242078E3,3.1147703E1,1.4753702E2,8.513521E1,2.787694E2,9.513947E2,4.9592398E2,1.4671686E2,1.1488568E1,8.428411E1,3.5181523E3,5.27578E2,2.958928E2],"tree_param":{"num_deleted":"0","num_feature":"30","num_nodes":"99","size_leaf_vector":"1"}},{"base_weights":[-1.7877339E-3,1.0182317E0,-7.328318E-1,1.1005403E0,3.7630066E-1,-9.827083E-1,-2.9053724E-1,-1.605674E-1,1.1012983E0,-1.9654576E-1,9.021215E-1,-1.0410942E0,-3.635001E-1,2.5916037E-1,-6.417204E-1,1.101859E0,-1.4296032E-1,-8.97544E-1,5.893712E-1,9.566632E-1,-1.352311E-1,-5.181143E-1,-1.0893093E0,5.263663E-1,-9.784364E-1,4.2263305E-1,-7.4893785E-1,7.197902E-2,-9.1472787E-1,1.102237E0,-8.266931E-2,8.3727646E-1,-1.1266756E0,-1.3355001E0,7.635974E-1,9.874785E-1,-1.9200344E0,-7.859999E-1,7.789397E-1,-1.1178164E0,-4.6274793E-1,-1.18999176E-1,8.6050284E-1,-1.138333E-1,8.0856365E-1,8.2338023E-1,2.810326E-2,6.3863015E-1,-1.4248194E0,-1.1697125E-1,4.1909668E-1,-1.1308795E0,-1.3397176E-2,1.1059841E-1,9.507557E-2,-1.0033002E-1,1.0920521E-1,-1.6690312E-1,-1.1063383E-1,-1.71194E-1,-1.10435985E-1,8.949962E-2,-1.3588956E-1,-1.54915E-1,1.0165049E-1,-9.543105E-2,-2.1659775E-1,4.7255244E-2,-1.1259835E-1,1.6370466E-1,-1.1065598E-1,-1.1454334E-1,-1.1138111E-1,-1.13583565E-1,9.551672E-2,-1.21272184E-1,1.05853975E-1,-1.048414E-1,1.0783442E-1,-2.2075252E-1,8.8706635E-2,5.6504954E-2,-9.249757E-2,-1.5413466E-1,1.1153264E-1,-1.8069765E-1,-1.274608E-1,8.648353E-2,-5.877272E-2,-1.2788373E-1,-1.1269052E-1,-1.16837226E-1,6.425333E-2],"categories":[],"categories_nodes":[],"categories_segments":[],"categories_sizes":[],"default_left":[0,0,0,0,0,0,0,0,0,0,0,0,0,0,0,0,0,0,0,0,0,0,0,0,0,0,0,0,0,0,0,0,0,0,0,0,0,0,0,0,0,0,0,0,0,0,0,0,0,0,0,0,0,0,0,0,0,0,0,0,0,0,0,0,0,0,0,0,0,0,0,0,0,0,0,0,0,0,0,0,0,0,0,0,0,0,0,0,0,0,0,0,0],"id":16,"left_children":[1,3,5,7,9,11,13,-1,15,17,19,21,23,25,27,29,-1,31,33,35,-1,37,39,41,43,45,47,49,51,53,-1,55,57,59,61,63,65,67,69,71,73,-1,75,-1,77,79,81,83,85,-1,87,89,91,-1,-1,-1,-1,-1,-1,-1,-1,-1,-1,-1,-1,-1,-1,-1,-1,-1,-1,-1,-1,-1,-1,-1,-1,-1,-1,-1,-1,-1,-1,-1,-1,-1,-1,-1,-1,-1,-1,-1,-1],"loss_changes":[3.288537E4,9.723906E2,2.8389033E3,3.5248047E1,6.309109E2,5.930791E2,1.7907444E3,0E0,2.4720703E1,5.531036E2,1.3556384E2,3.7767383E2,7.753506E2,5.96302E2,1.1028845E3,1.2808594E1,0E0,2.1183139E2,1.5980034E2,9.646094E1,0E0,4.412239E2,2.4477539E2,3.3324323E2,2.4027661E2,4.92086E2,4.7449658E2,6.7587E2,7.975974E2,8.203125E0,0E0,3.039008E1,3.3272705E0,1.5603333E0,1.2247818E2,7.93363E1,6.9900894E-1,4.50461E2,3.5383514E2,1.7773438E-1,5.7308264E2,0E0,2.006052E2,0E0,3.5889763E1,3.0000146E2,8.036964E2,1.743244E2,1.7207642E1,0E0,5.504218E2,5.004883E-1,6.014433E2,0E0,0E0,0E0,0E0,0E0,0E0,0E0,0E0,0E0,0E0,0E0,0E0,0E0,0E0,0E0,0E0,0E0,0E0,0E0,0E0,0E0,0E0,0E0,0E0,0E0,0E0,0E0,0E0,0E0,0E0,0E0,0E0,0E0,0E0,0E0,0E0,0E0,0E0,0E0,0E0],"parents":[2147483647,0,0,1,1,2,2,3,3,4,4,5,5,6,6,8,8,9,9,10,10,11,11,12,12,13,13,14,14,15,15,17,17,18,18,19,19,21,21,22,22,23,23,24,24,25,25,26,26,27,27,28,28,29,29,31,31,32,32,33,33,34,34,35,35,36,36,37,37,38,38,39,39,40,40,42,42,44,44,45,45,46,46,47,47,48,48,50,50,51,51,52,52],"right_children":[2,4,6,8,10,12,14,-1,16,18,20,22,24,26,28,30,-1,32,34,36,-1,38,40,42,44,46,48,50,52,54,-1,56,58,60,62,64,66,68,70,72,74,-1,76,-1,78,80,82,84,86,-1,88,90,92,-1,-1,-1,-1,-1,-1,-1,-1,-1,-1,-1,-1,-1,-1,-1,-1,-1,-1,-1,-1,-1,-1,-1,-1,-1,-1,-1,-1,-1,-1,-1,-1,-1,-1,-1,-1,-1,-1,-1,-1],"split_conditions":[-1.8863105E0,-1.8841089E0,5.266215E-1,4.6098724E-2,1.3424487E0,8.7742096E-1,-5.644803E-1,-1.605674E-1,2.4397568E-1,7.375366E-2,-1.6471942E-1,-9.969373E-1,-1.0254476E0,6.3527364E-1,-3.4370407E-1,1.0302951E0,-1.4296032E-1,-2.090823E0,-5.123984E-1,1.2882785E0,-1.352311E-1,-1.0142744E0,1.7454641E0,-1.4676726E-1,2.4651923E0,1.4989412E-1,-1.8719296E0,6.714792E-2,9.958981E-1,2.600733E0,-8.266931E-2,9.013887E-1,-1.4392083E0,-9.394775E-1,5.288856E-1,-1.239694E0,-1.2925769E0,-9.412741E-1,-1.3157307E0,-8.489499E-1,1.4527825E0,-1.18999176E-1,-5.753589E-1,-1.138333E-1,2.5048843E-1,-1.1178308E0,-3.4215465E-2,2.600733E0,-3.433541E-1,-1.1697125E-1,4.6069732E-1,-4.927846E-1,6.571313E-1,1.1059841E-1,9.507557E-2,-1.0033002E-1,1.0920521E-1,-1.6690312E-1,-1.1063383E-1,-1.71194E-1,-1.10435985E-1,8.949962E-2,-1.3588956E-1,-1.54915E-1,1.0165049E-1,-9.543105E-2,-2.1659775E-1,4.7255244E-2,-1.1259835E-1,1.6370466E-1,-1.1065598E-1,-1.1454334E-1,-1.1138111E-1,-1.13583565E-1,9.551672E-2,-1.21272184E-1,1.05853975E-1,-1.048414E-1,1.0783442E-1,-2.2075252E-1,8.8706635E-2,5.6504954E-2,-9.249757E-2,-1.5413466E-1,1.1153264E-1,-1.8069765E-1,-1.274608E-1,8.648353E-2,-5.877272E-2,-1.2788373E-1,-1.1269052E-1,-1.16837226E-1,6.425333E-2],"split_indices":[14,12,4,11,4,29,12,0,3,29,19,6,26,18,29,10,0,10,1,0,0,6,16,25,22,14,19,16,18,17,0,4,12,10,16,22,22,20,19,14,19,0,0,0,4,28,3,17,14,0,16,12,17,0,0,0,0,0,0,0,0,0,0,0,0,0,0,0,0,0,0,0,0,0,0,0,0,0,0,0,0,0,0,0,0,0,0,0,0,0,0,0,0],"split_type":[0,0,0,0,0,0,0,0,0,0,0,0,0,0,0,0,0,0,0,0,0,0,0,0,0,0,0,0,0,0,0,0,0,0,0,0,0,0,0,0,0,0,0,0,0,0,0,0,0,0,0,0,0,0,0,0,0,0,0,0,0,0,0,0,0,0,0,0,0,0,0,0,0,0,0,0,0,0,0,0,0,0,0,0,0,0,0,0,0,0,0,0,0],"sum_hessian":[4.4099234E4,1.8410637E4,2.5688596E4,1.6317669E4,2.0929678E3,1.641413E4,9.274466E3,3.9770021E0,1.6313692E4,1.0019916E3,1.0909762E3,1.4999159E4,1.4149717E3,3.6154932E3,5.6589727E3,1.6310645E4,3.0480137E0,5.295329E2,4.7245865E2,1.0657676E3,2.520857E1,1.2670854E3,1.3732073E4,5.7828577E2,8.3668585E2,3.1115127E3,5.039805E2,1.5659591E3,4.0930134E3,1.6307875E4,2.7687957E0,6.147023E1,4.6806268E2,3.86611E1,4.3379755E2,1.0551218E3,1.0645767E1,1.050513E3,2.1657251E2,1.3133734E4,5.9833875E2,9.381666E1,4.8446912E2,7.683029E2,6.838292E1,1.5430543E3,1.5684584E3,1.6509653E2,3.38884E2,3.4160773E2,1.2243514E3,3.3011072E3,7.9190625E2,1.5908064E4,3.9981036E2,7.1169868E0,5.4353245E1,1.3987155E1,4.5407553E2,1.2270545E1,2.6390553E1,4.0905237E2,2.4745193E1,1.1344585E1,1.0437772E3,3.1514475E0,7.4943194E0,2.2334477E2,8.271682E2,1.4892653E2,6.764597E1,1.6274581E3,1.1506276E4,4.0587015E2,1.924686E2,4.1795307E1,4.4267383E2,8.308303E0,6.0074615E1,3.1062973E1,1.5119913E3,1.0035083E3,5.649501E2,2.9223108E1,1.3587341E2,9.2506386E1,2.4637761E2,8.4874023E2,3.7561118E2,7.796092E1,3.2231462E3,2.865544E2,5.053518E2],"tree_param":{"num_deleted":"0","num_feature":"30","num_nodes":"93","size_leaf_vector":"1"}},{"base_weights":[-2.036093E-3,1.0055189E0,-7.1426195E-1,1.088374E0,3.6683556E-1,-9.678773E-1,-2.7846602E-1,-1.5472049E-1,1.0891427E0,-1.9303647E-1,8.8106114E-1,-1.026541E0,-3.5428953E-1,2.4292539E-1,-6.202118E-1,1.0897095E0,-1.3994145E-1,-8.8776016E-1,5.667943E-1,-1.2232002E-1,9.401058E-1,-5.023869E-1,-1.075842E0,3.3093214E-1,-1.1155684E-1,5.6558055E-1,-2.486606E-1,6.589108E-2,-8.957527E-1,1.0900931E0,-8.050626E-2,8.2482207E-1,-1.1146725E0,7.436885E-1,-1.2739865E-1,9.7300345E-1,-1.686668E0,-1.1125191E-1,4.9459483E-2,-1.1054241E-1,-4.451818E-1,6.5163344E-1,-1.184412E-1,6.627596E-1,-1.4904104E0,7.1962684E-1,-9.4781154E-1,-1.1522148E-1,3.8349935E-1,-1.1174608E0,-1.4099511E-2,1.0942475E-1,9.249338E-2,-9.817117E-2,1.0788622E-1,-1.6277604E-1,-1.0947444E-1,8.5558124E-2,-1.7021492E-1,-1.5154634E-1,1.0015018E-1,-2.321171E-1,-1.048309E-1,-1.1168905E-1,6.1193656E-2,-1.1274145E-1,8.506865E-2,8.715156E-2,-1.2155806E-1,7.3573396E-2,-1.5608457E-1,-1.864877E-1,-1.2636857E-1,9.777744E-2,-1.5681002E-1,6.1380383E-2,-1.2979609E-1,-1.2168852E-1,6.332207E-2,-1.2518916E-1,-1.1137553E-1,-1.2389195E-1,5.9428032E-2],"categories":[],"categories_nodes":[],"categories_segments":[],"categories_sizes":[],"default_left":[0,0,0,0,0,0,0,0,0,0,0,0,0,0,0,0,0,0,0,0,0,0,0,0,0,0,0,0,0,0,0,0,0,0,0,0,0,0,0,0,0,0,0,0,0,0,0,0,0,0,0,0,0,0,0,0,0,0,0,0,0,0,0,0,0,0,0,0,0,0,0,0,0,0,0,0,0,0,0,0,0,0,0],"id":17,"left_children":[1,3,5,7,9,11,13,-1,15,17,19,21,23,25,27,29,-1,31,33,-1,35,37,39,41,-1,43,45,47,49,51,-1,53,55,57,-1,59,61,-1,63,-1,65,67,-1,69,71,73,75,-1,77,79,81,-1,-1,-1,-1,-1,-1,-1,-1,-1,-1,-1,-1,-1,-1,-1,-1,-1,-1,-1,-1,-1,-1,-1,-1,-1,-1,-1,-1,-1,-1,-1,-1],"loss_changes":[2.921229E4,8.917324E2,2.6356572E3,3.1910156E1,5.5795166E2,5.422793E2,1.5636885E3,0E0,2.256836E1,4.9055783E2,1.2664441E2,3.5501855E2,6.874122E2,5.513196E2,1.00218884E3,1.1720703E1,0E0,1.8952771E2,1.455283E2,0E0,8.6591125E1,3.9897253E2,2.3411719E2,3.3800415E2,0E0,4.2022302E2,9.333657E2,5.884232E2,7.392671E2,9.222656E0,0E0,2.7382568E1,2.60437E0,1.124892E2,0E0,7.041565E1,2.6399307E0,0E0,4.094435E2,0E0,5.005686E2,2.3646565E2,0E0,3.2637427E2,5.709778E0,3.430244E2,4.384953E2,0E0,4.8284216E2,1.11083984E-1,5.6778516E2,0E0,0E0,0E0,0E0,0E0,0E0,0E0,0E0,0E0,0E0,0E0,0E0,0E0,0E0,0E0,0E0,0E0,0E0,0E0,0E0,0E0,0E0,0E0,0E0,0E0,0E0,0E0,0E0,0E0,0E0,0E0,0E0],"parents":[2147483647,0,0,1,1,2,2,3,3,4,4,5,5,6,6,8,8,9,9,10,10,11,11,12,12,13,13,14,14,15,15,17,17,18,18,20,20,21,21,22,22,23,23,25,25,26,26,27,27,28,28,29,29,31,31,32,32,33,33,35,35,36,36,38,38,40,40,41,41,43,43,44,44,45,45,46,46,48,48,49,49,50,50],"right_children":[2,4,6,8,10,12,14,-1,16,18,20,22,24,26,28,30,-1,32,34,-1,36,38,40,42,-1,44,46,48,50,52,-1,54,56,58,-1,60,62,-1,64,-1,66,68,-1,70,72,74,76,-1,78,80,82,-1,-1,-1,-1,-1,-1,-1,-1,-1,-1,-1,-1,-1,-1,-1,-1,-1,-1,-1,-1,-1,-1,-1,-1,-1,-1,-1,-1,-1,-1,-1,-1],"split_conditions":[-1.8863105E0,-1.8841089E0,5.266215E-1,4.6098724E-2,1.3424487E0,8.7742096E-1,-5.644803E-1,-1.5472049E-1,2.4397568E-1,7.375366E-2,5.0694376E-2,-9.969373E-1,-6.8497366E-1,-1.1308246E-1,-3.4370407E-1,1.0302951E0,-1.3994145E-1,-2.090823E0,1.6084255E-1,-1.2232002E-1,5.656863E-1,-1.5020719E-1,1.7454641E0,7.4317984E-2,-1.1155684E-1,1.0668277E0,-3.433541E-1,6.714792E-2,9.958981E-1,2.600733E0,-8.050626E-2,9.013887E-1,-1.4392083E0,4.9751945E-2,-1.2739865E-1,-1.2065758E0,3.1079516E-1,-1.1125191E-1,-4.839865E-2,-1.1054241E-1,-4.1970253E-1,1.8918961E-1,-1.184412E-1,9.975596E-1,3.138614E-1,-5.127831E-1,-2.700015E0,-1.1522148E-1,2.5274718E-1,-4.927846E-1,1.9595534E-2,1.0942475E-1,9.249338E-2,-9.817117E-2,1.0788622E-1,-1.6277604E-1,-1.0947444E-1,8.5558124E-2,-1.7021492E-1,-1.5154634E-1,1.0015018E-1,-2.321171E-1,-1.048309E-1,-1.1168905E-1,6.1193656E-2,-1.1274145E-1,8.506865E-2,8.715156E-2,-1.2155806E-1,7.3573396E-2,-1.5608457E-1,-1.864877E-1,-1.2636857E-1,9.777744E-2,-1.5681002E-1,6.1380383E-2,-1.2979609E-1,-1.2168852E-1,6.332207E-2,-1.2518916E-1,-1.1137553E-1,-1.2389195E-1,5.9428032E-2],"split_indices":[14,12,4,11,4,29,12,0,3,29,28,6,26,8,29,10,0,10,11,0,15,4,16,13,0,25,14,16,18,17,0,4,12,27,0,22,10,0,28,0,4,24,0,1,14,10,15,0,2,12,23,0,0,0,0,0,0,0,0,0,0,0,0,0,0,0,0,0,0,0,0,0,0,0,0,0,0,0,0,0,0,0,0],"split_type":[0,0,0,0,0,0,0,0,0,0,0,0,0,0,0,0,0,0,0,0,0,0,0,0,0,0,0,0,0,0,0,0,0,0,0,0,0,0,0,0,0,0,0,0,0,0,0,0,0,0,0,0,0,0,0,0,0,0,0,0,0,0,0,0,0,0,0,0,0,0,0,0,0,0,0,0,0,0,0,0,0,0,0],"sum_hessian":[4.070593E4,1.6857684E4,2.3848246E4,1.4921272E4,1.9364108E3,1.5074363E4,8.773884E3,3.7635071E0,1.491751E4,9.273581E2,1.0090527E3,1.3758292E4,1.3160707E3,3.4739973E3,5.2998867E3,1.4914675E4,2.8349953E0,4.8434576E2,4.4301233E2,2.7002665E1,9.8205E2,1.183789E3,1.2574503E4,6.9293243E2,6.231383E2,2.0972834E3,1.376714E3,1.518801E3,3.7810854E3,1.491208E4,2.5947404E0,5.635805E1,4.279877E2,4.0471616E2,3.8296177E1,9.705247E2,1.1525246E1,5.6172205E2,6.2206696E2,1.2010388E4,5.6411566E2,5.7236865E2,1.2056381E2,2.0032738E3,9.400961E1,5.7723895E2,7.9947504E2,3.1356693E2,1.205234E3,3.0211052E3,7.599804E2,1.4540702E4,3.7137732E2,6.5950227E0,4.9763027E1,1.2984843E1,4.1500287E2,3.8763284E2,1.7083317E1,1.0398009E1,9.601267E2,4.4580116E0,7.0672336E0,2.0206993E2,4.19997E2,3.6964142E2,1.9447424E2,5.1254486E2,5.982376E1,1.9402671E3,6.3006653E1,3.2728603E1,6.1281013E1,5.192224E2,5.801655E1,1.4628998E2,6.5318506E2,1.6215584E2,1.0430782E3,7.200291E1,2.9491023E3,2.5186899E2,5.0811142E2],"tree_param":{"num_deleted":"0","num_feature":"30","num_nodes":"83","size_leaf_vector":"1"}},{"base_weights":[-2.3578343E-3,9.938602E-1,-6.966072E-1,1.0774208E0,3.5767853E-1,-9.528676E-1,-2.6786622E-1,-1.4900766E-1,1.0782019E0,-1.8943383E-1,8.6165524E-1,-1.0276498E0,-4.646972E-1,2.2892769E-1,-5.9932125E-1,1.0787768E0,-1.367695E-1,-8.7896967E-1,5.4364234E-1,1.0150077E0,2.9080622E-2,-2.8952235E-1,-1.0629629E0,5.209409E-1,-1.0195373E0,-1.16551116E-1,6.526469E-1,5.981169E-2,-8.7638557E-1,1.08355E0,8.9312434E-1,8.1315917E-1,-1.103927E0,7.1254057E-1,-1.3855236E0,-2.952873E0,1.033006E0,-2.1400752E0,7.659989E-1,-1.1342497E-1,3.5000023E-1,-1.0939934E-1,-4.3552738E-1,1.0212262E0,-1.1544522E-1,-1.11467436E-1,4.962831E-1,5.5138445E-1,-6.753169E-1,8.9558274E-1,-4.8230442E-1,8.584462E-1,-3.9445752E-1,-1.1055268E-1,-1.4648535E-2,1.0838082E-1,-9.305703E-2,1.0046744E-1,-2.370073E-1,-9.6109755E-2,1.0668235E-1,-1.5866923E-1,-1.0844224E-1,8.314852E-2,-1.5754251E-1,-1.5557837E-1,-1.0915607E-1,-8.554536E-2,-3.4955615E-1,-1.5485288E-1,1.052101E-1,-1.15794756E-1,-2.6168463E-1,1.0752267E-1,-1.6203184E-1,-1.1105981E-1,7.75193E-2,-1.11443676E-1,8.6820364E-2,1.2224392E-1,-1.1386671E-1,1.0668733E-1,-1.08260654E-1,8.431335E-2,-1.5786311E-1,1.2884254E-2,-1.5524183E-1,1.0167469E-1,-1.2790315E-1,1.1654166E-1,-1.2308556E-1,1.2941313E-1,-1.22016385E-1,-1.2298341E-1,3.4190707E-2,5.7417165E-2,-1.1661196E-1],"categories":[],"categories_nodes":[],"categories_segments":[],"categories_sizes":[],"default_left":[0,0,0,0,0,0,0,0,0,0,0,0,0,0,0,0,0,0,0,0,0,0,0,0,0,0,0,0,0,0,0,0,0,0,0,0,0,0,0,0,0,0,0,0,0,0,0,0,0,0,0,0,0,0,0,0,0,0,0,0,0,0,0,0,0,0,0,0,0,0,0,0,0,0,0,0,0,0,0,0,0,0,0,0,0,0,0,0,0,0,0,0,0,0,0,0,0],"id":18,"left_children":[1,3,5,7,9,11,13,-1,15,17,19,21,23,25,27,29,-1,31,33,35,37,39,41,43,45,47,49,51,53,55,57,59,61,63,65,67,69,71,73,-1,75,-1,77,79,-1,-1,81,83,85,87,89,91,93,-1,95,-1,-1,-1,-1,-1,-1,-1,-1,-1,-1,-1,-1,-1,-1,-1,-1,-1,-1,-1,-1,-1,-1,-1,-1,-1,-1,-1,-1,-1,-1,-1,-1,-1,-1,-1,-1,-1,-1,-1,-1,-1,-1],"loss_changes":[2.5974424E4,8.1952637E2,2.4313906E3,2.8945312E1,4.9431366E2,5.052119E2,1.3637388E3,0E0,2.0640625E1,4.3525153E2,1.1909662E2,3.127705E2,1.00782605E3,4.8530286E2,9.07204E2,1.1108398E1,0E0,1.6975812E2,1.3702686E2,5.93161E1,2.3526425E2,2.973958E2,2.226914E2,5.577891E2,1.7055566E2,6.8216345E2,4.1095874E2,5.340142E2,6.905698E2,7.915039E0,1.2878015E2,2.4712132E1,1.9702148E0,1.05965485E2,9.918213E-4,1.3541565E0,4.032794E1,1.4447235E1,8.278634E1,0E0,1.9565146E2,0E0,4.805504E2,2.2386505E2,0E0,0E0,6.449742E1,5.187678E2,7.020928E2,3.245338E2,3.2602036E2,4.8487555E2,5.7763696E2,0E0,4.9944052E2,0E0,0E0,0E0,0E0,0E0,0E0,0E0,0E0,0E0,0E0,0E0,0E0,0E0,0E0,0E0,0E0,0E0,0E0,0E0,0E0,0E0,0E0,0E0,0E0,0E0,0E0,0E0,0E0,0E0,0E0,0E0,0E0,0E0,0E0,0E0,0E0,0E0,0E0,0E0,0E0,0E0,0E0],"parents":[2147483647,0,0,1,1,2,2,3,3,4,4,5,5,6,6,8,8,9,9,10,10,11,11,12,12,13,13,14,14,15,15,17,17,18,18,19,19,20,20,21,21,22,22,23,23,24,24,25,25,26,26,27,27,28,28,29,29,30,30,31,31,32,32,33,33,34,34,35,35,36,36,37,37,38,38,40,40,42,42,43,43,46,46,47,47,48,48,49,49,50,50,51,51,52,52,54,54],"right_children":[2,4,6,8,10,12,14,-1,16,18,20,22,24,26,28,30,-1,32,34,36,38,40,42,44,46,48,50,52,54,56,58,60,62,64,66,68,70,72,74,-1,76,-1,78,80,-1,-1,82,84,86,88,90,92,94,-1,96,-1,-1,-1,-1,-1,-1,-1,-1,-1,-1,-1,-1,-1,-1,-1,-1,-1,-1,-1,-1,-1,-1,-1,-1,-1,-1,-1,-1,-1,-1,-1,-1,-1,-1,-1,-1,-1,-1,-1,-1,-1,-1],"split_conditions":[-1.8863105E0,-1.8841089E0,5.266215E-1,4.6098724E-2,1.3424487E0,8.739976E-1,-5.644803E-1,-1.4900766E-1,2.4397568E-1,7.375366E-2,-3.3828878E-1,-9.412741E-1,